SVM-light Version V6.01
0 # kernel type
3 # kernel parameter -d 
1 # kernel parameter -g 
1 # kernel parameter -s 
1 # kernel parameter -r 
empty# kernel parameter -u 
33071 # highest feature index 
2028 # number of training documents 
635 # number of support vectors plus 1 
0.65393292 # threshold b, each following line is a SV (starting with alpha*y)
-8.0518882205525326156703158630989 801:0.0040485798 1070:0.0040485798 1105:0.0040485798 1146:0.0080971699 1155:0.0040485798 1368:0.0080971699 1713:0.0040485798 1776:0.0040485798 1777:0.0040485798 2751:0.0040485798 3062:0.0040485798 3942:0.0040485798 4053:0.0080971699 4078:0.0040485798 5646:0.0040485798 5990:0.0040485798 6245:0.0040485798 6646:0.0040485798 6804:0.0040485798 6827:0.0040485798 6866:0.0040485798 7028:0.0121457 7077:0.0040485798 7599:0.0040485798 7990:0.0080971699 8223:0.0202429 8328:0.0040485798 8505:0.0040485798 8943:0.0040485798 9212:0.0040485798 10083:0.0040485798 10833:0.0040485798 10837:0.0040485798 10896:0.0040485798 10907:0.0040485798 11981:0.032388698 12093:0.0080971699 12227:0.0040485798 12542:0.0040485798 14158:0.0121457 15665:0.0040485798 17449:0.0040485798 18078:0.0040485798 18224:0.0040485798 18265:0.0040485798 18558:0.0040485798 18564:0.0040485798 19141:0.0040485798 19257:0.0040485798 19919:0.0040485798 20432:0.0040485798 20555:0.0040485798 20584:0.0040485798 21423:0.0040485798 21424:0.0080971699 22631:0.0040485798 23987:0.0040485798 24216:0.0040485798 24774:0.0040485798 24835:0.0040485798 24883:0.0040485798 25534:0.0040485798 25657:0.0040485798 25664:0.0040485798 25669:0.0080971699 25942:0.0040485798 25943:0.0040485798 26109:0.0040485798 26208:0.0040485798 26565:0.0040485798 26753:0.0040485798 26896:0.0040485798 26952:0.0040485798 27110:0.0040485798 27147:0.0040485798 27776:0.0121457 28079:0.016194301 28265:0.0040485798 28724:0.0202429 28728:0.0040485798 28732:0.0040485798 28914:0.0040485798 28916:0.0040485798 28987:0.0242915 28990:0.0040485798 29042:0.0040485798 29112:0.0080971699 29185:0.0040485798 29355:0.0040485798 30020:0.0080971699 30105:0.0040485798 30683:0.0040485798 32033:0.0040485798 32354:0.0040485798 #15271104
-85.310848329918499644008988980204 88:0.0046948399 1155:0.0046948399 1431:0.0046948399 1550:0.0093896696 1884:0.0046948399 2742:0.0046948399 2755:0.0093896696 2816:0.0093896696 3392:0.0046948399 4078:0.0046948399 5627:0.0046948399 6042:0.0046948399 6044:0.0140845 6126:0.0046948399 6264:0.0046948399 6277:0.0046948399 6278:0.0046948399 6575:0.0046948399 6582:0.0046948399 6656:0.0046948399 6713:0.0046948399 6714:0.0046948399 6916:0.0046948399 6923:0.0046948399 7038:0.0046948399 7236:0.0046948399 7485:0.0046948399 7494:0.0046948399 7653:0.0046948399 8168:0.0046948399 8356:0.0046948399 8577:0.0046948399 8589:0.0093896696 9032:0.0046948399 9076:0.0046948399 9252:0.0046948399 9904:0.0046948399 10078:0.0046948399 10079:0.0046948399 10753:0.0046948399 10854:0.0046948399 11067:0.0046948399 11328:0.0046948399 11423:0.0046948399 11475:0.0046948399 12038:0.0046948399 12129:0.0046948399 12357:0.0046948399 13890:0.0140845 13924:0.0046948399 14453:0.0046948399 14460:0.0046948399 15249:0.0140845 15493:0.0046948399 16906:0.0046948399 16928:0.0046948399 16935:0.0046948399 17489:0.0046948399 17833:0.0046948399 18120:0.0187793 19155:0.0093896696 19265:0.0046948399 19299:0.0046948399 19897:0.0046948399 19927:0.0046948399 20063:0.0046948399 20065:0.0046948399 20122:0.0093896696 20132:0.0046948399 20890:0.0046948399 21393:0.0046948399 22181:0.0046948399 22359:0.0046948399 22591:0.0093896696 22592:0.0046948399 22667:0.0046948399 23240:0.0046948399 23634:0.0046948399 23635:0.0046948399 23762:0.0046948399 23958:0.0046948399 24178:0.0046948399 24197:0.0140845 24261:0.0046948399 24314:0.0046948399 24506:0.0046948399 24520:0.0046948399 25651:0.0046948399 26008:0.0046948399 26067:0.0046948399 27297:0.0046948399 27310:0.0046948399 27775:0.0046948399 27895:0.0093896696 28446:0.0046948399 28463:0.0046948399 28509:0.0046948399 28734:0.0046948399 29582:0.0046948399 29659:0.0046948399 29666:0.0046948399 29985:0.0046948399 30586:0.0046948399 30792:0.0046948399 30793:0.0093896696 31748:0.0046948399 32392:0.0046948399 32489:0.0046948399 32566:0.0046948399 #14976016
-39.431161818418992481838358798996 1725:0.016949199 2700:0.0056497199 2724:0.0056497199 2755:0.0112994 3092:0.0056497199 3226:0.0056497199 4197:0.016949199 4200:0.0056497199 4207:0.0056497199 5184:0.0056497199 5298:0.0112994 5299:0.0056497199 5793:0.0056497199 6271:0.0112994 6801:0.0056497199 7438:0.0056497199 8575:0.0056497199 8953:0.0056497199 9429:0.0056497199 9432:0.0056497199 9873:0.0056497199 10105:0.0056497199 10108:0.0056497199 10587:0.0056497199 10588:0.0056497199 11151:0.0056497199 11672:0.0056497199 11829:0.0112994 13425:0.0112994 14501:0.016949199 14634:0.0056497199 15277:0.0056497199 15351:0.0112994 15413:0.0112994 16175:0.0056497199 17105:0.0112994 17602:0.0225989 17606:0.016949199 18021:0.0112994 18223:0.0056497199 18784:0.0056497199 18825:0.0056497199 18860:0.0056497199 19994:0.0056497199 20050:0.0056497199 20722:0.0056497199 22602:0.0056497199 23281:0.0112994 24043:0.016949199 24049:0.0112994 24377:0.0056497199 25361:0.0056497199 25411:0.0056497199 26158:0.0056497199 27255:0.0056497199 28140:0.0056497199 28945:0.0056497199 29172:0.0112994 30724:0.0056497199 30732:0.0056497199 30779:0.0056497199 30987:0.039547998 31835:0.0056497199 32001:0.0056497199 32002:0.0056497199 32365:0.0056497199 #11896040
-31.191954170534618384635905385949 964:0.019607799 1663:0.0065359501 2564:0.0065359501 3102:0.0065359501 3388:0.0065359501 3473:0.019607799 4228:0.0261438 4233:0.0065359501 4395:0.0065359501 5607:0.0065359501 5632:0.0130719 6843:0.0261438 6844:0.0130719 6845:0.0065359501 6846:0.0130719 6921:0.0065359501 7006:0.0065359501 7010:0.0130719 8691:0.0065359501 9289:0.0065359501 10143:0.0065359501 10861:0.0065359501 11323:0.0065359501 12106:0.0065359501 12576:0.0065359501 13072:0.0065359501 13073:0.0065359501 14115:0.0065359501 14205:0.019607799 14774:0.0065359501 15324:0.0065359501 15330:0.0065359501 15510:0.0065359501 16309:0.0065359501 17590:0.0065359501 17913:0.0130719 20564:0.0065359501 21341:0.0065359501 21630:0.0065359501 22493:0.0065359501 23582:0.0065359501 23728:0.0065359501 23743:0.0065359501 25162:0.0130719 25567:0.0065359501 26039:0.0065359501 26236:0.0261438 26237:0.0065359501 26283:0.0065359501 28459:0.0065359501 28463:0.0065359501 28485:0.0065359501 28749:0.0065359501 29110:0.0065359501 30268:0.0065359501 30662:0.0065359501 31371:0.0065359501 31384:0.0130719 32143:0.0065359501 32938:0.0065359501 #10383615
-22.647995353004148455511312931776 1795:0.045454498 4759:0.022727299 4767:0.022727299 5052:0.022727299 7226:0.022727299 7746:0.022727299 7751:0.022727299 8231:0.022727299 8328:0.022727299 8373:0.022727299 10002:0.022727299 11964:0.022727299 12061:0.022727299 12197:0.022727299 20601:0.022727299 21121:0.022727299 21221:0.022727299 21709:0.022727299 23616:0.022727299 23991:0.022727299 26891:0.022727299 28904:0.022727299 29223:0.022727299 29640:0.022727299 29889:0.022727299 #9433783
-117.51234704103265471530903596431 314:0.029535901 321:0.00421941 322:0.00421941 1056:0.00421941 1347:0.00843882 1368:0.00421941 1575:0.021097001 1678:0.016877601 1682:0.00421941 1684:0.00421941 2191:0.00843882 2697:0.00421941 2755:0.00421941 2797:0.00421941 3073:0.00421941 3631:0.00421941 4023:0.00421941 4026:0.00843882 4395:0.016877601 4996:0.00421941 4997:0.00421941 5334:0.00843882 5675:0.00421941 6177:0.00421941 6726:0.00843882 6783:0.00421941 6827:0.00843882 6957:0.00421941 7346:0.00421941 7659:0.00421941 7990:0.0126582 8217:0.016877601 8219:0.00421941 8728:0.00421941 9305:0.00421941 9530:0.00421941 9901:0.00421941 9918:0.016877601 10296:0.00843882 10401:0.00421941 10509:0.00421941 10740:0.00421941 10773:0.00421941 10775:0.00843882 10866:0.00421941 10869:0.00421941 10973:0.00421941 11029:0.00421941 11099:0.00421941 11859:0.00421941 11903:0.00843882 12175:0.00843882 12280:0.00421941 12281:0.00421941 12283:0.00421941 12525:0.0126582 12578:0.00421941 12859:0.00421941 14270:0.00421941 14397:0.00843882 14398:0.00843882 15249:0.00421941 15277:0.00421941 15280:0.00843882 15287:0.00421941 15469:0.00421941 17249:0.00421941 18257:0.00421941 18361:0.00843882 18375:0.0126582 19180:0.00421941 19923:0.00421941 22873:0.00421941 23738:0.0126582 23739:0.00421941 24069:0.00843882 24211:0.00421941 24794:0.00421941 25103:0.00421941 25411:0.00421941 25612:0.00421941 25632:0.00843882 25894:0.00421941 26172:0.00843882 26207:0.00421941 27217:0.0126582 27858:0.00421941 28732:0.00843882 29236:0.00421941 29392:0.00421941 30268:0.00421941 32074:0.00421941 32581:0.00421941 #11588122
37.583533797779452356735419016331 1368:0.0052910098 1426:0.0052910098 1427:0.0052910098 1607:0.0052910098 2510:0.0052910098 3138:0.0052910098 3547:0.0052910098 3548:0.0052910098 3552:0.015873 3590:0.0052910098 5014:0.0052910098 5482:0.015873 5607:0.0052910098 5632:0.021164 5900:0.0052910098 5901:0.0052910098 5977:0.0052910098 6323:0.0052910098 6325:0.010582 6334:0.0052910098 6566:0.0052910098 6643:0.0052910098 7019:0.0052910098 7722:0.0052910098 8327:0.0052910098 8337:0.0052910098 8862:0.0052910098 10262:0.0052910098 10402:0.0052910098 11036:0.0052910098 11080:0.0052910098 11083:0.0052910098 12197:0.0052910098 12548:0.0052910098 13069:0.0052910098 13191:0.0052910098 13983:0.052910101 13984:0.031746 13985:0.010582 15075:0.0052910098 15389:0.0052910098 15689:0.0052910098 16022:0.0052910098 16542:0.010582 16557:0.0052910098 17859:0.0052910098 17994:0.0052910098 18255:0.0052910098 18991:0.0052910098 19075:0.0052910098 19599:0.0052910098 19923:0.0052910098 21044:0.0052910098 22275:0.0052910098 22819:0.0052910098 22966:0.0052910098 22982:0.010582 22983:0.015873 22984:0.0052910098 22985:0.0052910098 23472:0.0052910098 24134:0.0052910098 24135:0.0052910098 24210:0.0052910098 24424:0.0052910098 24470:0.0052910098 24768:0.0052910098 25657:0.010582 25842:0.0052910098 25843:0.0052910098 26111:0.0052910098 26282:0.0052910098 26554:0.0052910098 27513:0.0052910098 27515:0.0052910098 27608:0.010582 27779:0.0052910098 28009:0.0052910098 28137:0.0052910098 29085:0.010582 29111:0.0052910098 29316:0.0052910098 29659:0.0052910098 32114:0.0052910098 32354:0.015873 32365:0.0052910098 #10557092
63.275314640603347982050763675943 1367:0.0047846902 1426:0.0047846902 2195:0.0047846902 2196:0.0047846902 2236:0.0047846902 2745:0.0047846902 5165:0.0047846902 5166:0.0047846902 5232:0.0047846902 5237:0.0047846902 5632:0.0047846902 5686:0.0047846902 6113:0.0047846902 6576:0.0047846902 6608:0.0047846902 6693:0.0143541 6717:0.0047846902 6720:0.0047846902 6863:0.0047846902 8255:0.0047846902 8730:0.0095693804 10261:0.0047846902 10861:0.0047846902 11068:0.0047846902 12186:0.0047846902 12190:0.0047846902 12197:0.0047846902 12586:0.0047846902 13120:0.0047846902 13631:0.0047846902 13637:0.0047846902 13890:0.0047846902 14170:0.0047846902 15311:0.0047846902 15689:0.0095693804 15696:0.0047846902 16173:0.0047846902 18120:0.0047846902 18493:0.0047846902 19155:0.0047846902 22924:0.0047846902 23634:0.0047846902 23740:0.0047846902 24084:0.0047846902 24085:0.0047846902 24424:0.0047846902 24470:0.0047846902 24520:0.0047846902 25843:0.0047846902 25847:0.0047846902 26146:0.0047846902 26208:0.0047846902 26283:0.0047846902 26554:0.0047846902 26556:0.0047846902 26833:0.0047846902 27565:0.0047846902 27687:0.0047846902 27743:0.0047846902 28725:0.0047846902 29007:0.0047846902 29090:0.0047846902 29111:0.0047846902 29112:0.0047846902 29278:0.0095693804 29317:0.0095693804 29637:0.0095693804 29638:0.0095693804 29641:0.0095693804 30428:0.0047846902 30697:0.0334928 30698:0.0287081 30699:0.0191388 31013:0.0191388 31024:0.0191388 31025:0.0047846902 31216:0.023923401 31218:0.0095693804 31348:0.0047846902 32365:0.0047846902 32931:0.0095693804 #9194697
21.130916233075399901508717448451 292:0.0080000004 881:0.0080000004 2196:0.016000001 2198:0.016000001 2923:0.0080000004 3058:0.0080000004 3641:0.0080000004 4075:0.0080000004 4219:0.0080000004 5102:0.024 5103:0.0080000004 5104:0.016000001 5123:0.0080000004 6474:0.0080000004 6866:0.0080000004 7990:0.0080000004 8872:0.0080000004 9048:0.0080000004 9927:0.0080000004 11080:0.0080000004 11328:0.0080000004 12190:0.0080000004 12558:0.0080000004 12586:0.016000001 13626:0.0080000004 13934:0.0080000004 14774:0.0080000004 14777:0.0080000004 15051:0.0080000004 15150:0.016000001 15658:0.0080000004 15689:0.0080000004 16542:0.039999999 17397:0.016000001 18358:0.0080000004 19695:0.0080000004 20796:0.0080000004 20830:0.016000001 20953:0.0080000004 23315:0.016000001 23924:0.0080000004 26208:0.0080000004 26556:0.016000001 27437:0.0080000004 27776:0.024 29316:0.0080000004 29317:0.0080000004 29659:0.024 30475:0.0080000004 30553:0.056000002 31151:0.0080000004 31348:0.0080000004 31655:0.0080000004 32354:0.0080000004 32365:0.0080000004 32931:0.0080000004 #12721663
72.86744894899622693174023879692 1143:0.0040160599 1257:0.0200803 1927:0.0080321301 2094:0.0200803 2288:0.0040160599 2729:0.0040160599 2852:0.0040160599 3102:0.0040160599 3641:0.0040160599 4026:0.0040160599 4031:0.0080321301 4305:0.0080321301 4881:0.0040160599 5053:0.0040160599 5237:0.0040160599 5740:0.0040160599 5908:0.0040160599 6118:0.0040160599 6693:0.0080321301 6960:0.0040160599 6965:0.0040160599 6981:0.0040160599 7006:0.0040160599 7017:0.0040160599 7531:0.0080321301 8223:0.0040160599 8559:0.0040160599 10372:0.0040160599 10971:0.0040160599 11046:0.0040160599 11090:0.0040160599 11657:0.0040160599 11676:0.0040160599 11903:0.0040160599 11968:0.0040160599 12628:0.0040160599 13101:0.0040160599 13111:0.0040160599 13890:0.0040160599 15300:0.0040160599 15471:0.0040160599 15475:0.0080321301 15482:0.0040160599 15692:0.0040160599 16022:0.0040160599 16037:0.0080321301 16192:0.0040160599 17038:0.0040160599 18885:0.0040160599 19086:0.0080321301 19161:0.0040160599 19164:0.0040160599 19526:0.0040160599 19783:0.0040160599 21019:0.0040160599 21946:0.0040160599 22127:0.0040160599 23539:0.0040160599 23592:0.0040160599 23761:0.0040160599 23783:0.0240964 24722:0.0040160599 25100:0.0040160599 25329:0.0040160599 25773:0.0040160599 25782:0.0040160599 25818:0.0040160599 26009:0.0040160599 26111:0.0080321301 26113:0.0120482 26131:0.0040160599 27207:0.0040160599 27255:0.0040160599 27259:0.0080321301 27822:0.0040160599 28401:0.0040160599 28745:0.0040160599 28765:0.0040160599 29043:0.0040160599 29082:0.0040160599 29093:0.0040160599 29253:0.0040160599 29451:0.0040160599 30040:0.0040160599 30041:0.016064299 30638:0.0040160599 30662:0.0040160599 31105:0.0040160599 31159:0.0040160599 31387:0.0040160599 31410:0.0040160599 31591:0.0040160599 32545:0.0040160599 32546:0.0040160599 #7897663
-144.04157796990725159957946743816 1368:0.0060240999 1472:0.0060240999 1714:0.0060240999 3007:0.0120482 3058:0.0060240999 3237:0.0060240999 4023:0.0060240999 4026:0.0180723 5632:0.078313299 6042:0.0060240999 8175:0.0060240999 8339:0.054216899 8536:0.0060240999 9912:0.0060240999 10878:0.0060240999 10895:0.0060240999 14231:0.0060240999 15092:0.0060240999 15310:0.0060240999 15446:0.0060240999 15507:0.0060240999 15732:0.0060240999 16582:0.0060240999 16699:0.0180723 16916:0.0060240999 17348:0.0120482 17639:0.0180723 17861:0.0060240999 19164:0.0060240999 19237:0.0060240999 19748:0.0060240999 19749:0.0060240999 19750:0.0060240999 19973:0.0060240999 20421:0.0060240999 22267:0.0180723 22604:0.0060240999 22788:0.0060240999 22789:0.0060240999 23628:0.0060240999 23629:0.0060240999 23635:0.0060240999 24023:0.0060240999 24069:0.0060240999 24120:0.0060240999 24167:0.0060240999 25411:0.0180723 25632:0.0120482 25653:0.0120482 25694:0.0060240999 26208:0.0060240999 26282:0.0060240999 26556:0.0060240999 27282:0.0060240999 27776:0.0060240999 27778:0.0060240999 28012:0.0060240999 28463:0.0060240999 29112:0.0060240999 29317:0.0060240999 29659:0.0060240999 31924:0.0060240999 32074:0.0060240999 32311:0.0120482 32354:0.0120482 32365:0.0060240999 #11436992
-144.04157796990725159957946743816 3537:0.016666699 5169:0.016666699 5607:0.016666699 6902:0.016666699 6907:0.016666699 6908:0.016666699 7325:0.016666699 8270:0.033333302 8730:0.016666699 9150:0.050000001 10390:0.016666699 12190:0.016666699 14205:0.016666699 15715:0.016666699 16236:0.016666699 17764:0.016666699 18237:0.016666699 19125:0.016666699 19126:0.016666699 21304:0.016666699 23633:0.016666699 23740:0.016666699 24424:0.033333302 25902:0.016666699 27210:0.016666699 27412:0.016666699 29659:0.016666699 29666:0.016666699 30877:0.016666699 31371:0.033333302 31720:0.016666699 32305:0.016666699 #15636742
-98.903547084148513590662332717329 1368:0.021052601 1477:0.0105263 2198:0.0105263 2271:0.00526316 4078:0.00526316 4977:0.021052601 5566:0.0105263 5607:0.026315801 5632:0.0473684 6643:0.0157895 7837:0.00526316 8331:0.00526316 8735:0.00526316 9341:0.0105263 10141:0.00526316 10402:0.00526316 10741:0.00526316 11083:0.00526316 11117:0.00526316 11154:0.00526316 11281:0.00526316 11682:0.00526316 12558:0.00526316 12586:0.026315801 12768:0.00526316 13924:0.00526316 13934:0.0105263 14019:0.00526316 14408:0.00526316 15278:0.00526316 15577:0.00526316 16006:0.00526316 16022:0.00526316 17116:0.00526316 17258:0.0157895 17269:0.0105263 17348:0.0105263 17771:0.0105263 18094:0.00526316 18239:0.00526316 18534:0.021052601 18536:0.0157895 19322:0.0105263 19391:0.00526316 22122:0.026315801 22123:0.0157895 22124:0.0157895 22127:0.0157895 22226:0.021052601 22269:0.00526316 22651:0.0105263 24219:0.00526316 24354:0.00526316 24520:0.00526316 24525:0.00526316 26208:0.00526316 27276:0.00526316 27448:0.00526316 29112:0.0105263 29195:0.00526316 29196:0.00526316 31277:0.00526316 31811:0.0105263 #15053306
-144.04157796990725159957946743816 1368:0.0085470099 1485:0.0085470099 2459:0.0085470099 2482:0.017093999 3518:0.0085470099 3545:0.0085470099 6179:0.017093999 6226:0.0085470099 7472:0.0085470099 8222:0.0085470099 8725:0.0085470099 8730:0.017093999 9920:0.0085470099 10263:0.0085470099 10968:0.0085470099 11080:0.0085470099 12190:0.0085470099 12586:0.017093999 12995:0.0085470099 15673:0.0085470099 16175:0.0085470099 17354:0.0085470099 17489:0.0085470099 22557:0.0085470099 22558:0.017093999 22559:0.0085470099 23116:0.0085470099 23833:0.0085470099 24197:0.0085470099 24470:0.042734999 24476:0.0085470099 24768:0.0085470099 24794:0.0085470099 25291:0.0085470099 26175:0.0085470099 27207:0.0085470099 27437:0.0085470099 27687:0.0085470099 27778:0.0085470099 27858:0.034187999 27881:0.0085470099 27908:0.0085470099 27976:0.042734999 27980:0.0085470099 27981:0.0085470099 27982:0.0085470099 27983:0.0085470099 28037:0.0085470099 29043:0.0085470099 29224:0.0085470099 29266:0.0085470099 31371:0.017093999 32354:0.0085470099 32365:0.0085470099 32749:0.0085470099 #11702080
-125.0916850102389616949949413538 1646:0.0068965498 1873:0.0068965498 1884:0.0068965498 2198:0.0068965498 2208:0.0068965498 2570:0.0068965498 3073:0.0068965498 4207:0.0068965498 4979:0.0068965498 5428:0.0137931 5450:0.0137931 5607:0.0137931 5632:0.055172399 5762:0.0068965498 5998:0.0068965498 6214:0.0206897 6225:0.0068965498 6410:0.0068965498 6643:0.0068965498 7006:0.0068965498 7837:0.0068965498 7865:0.0068965498 7874:0.0068965498 8171:0.0206897 8575:0.0068965498 8734:0.0068965498 8740:0.0068965498 8862:0.0068965498 9276:0.0137931 10401:0.0068965498 10895:0.0068965498 11036:0.0068965498 11080:0.0068965498 11083:0.0068965498 11964:0.0068965498 12558:0.0068965498 12586:0.0068965498 12768:0.0068965498 13621:0.0137931 14772:0.0068965498 15001:0.0068965498 15002:0.0068965498 15104:0.0068965498 15351:0.0068965498 16022:0.0068965498 17096:0.0068965498 17653:0.0068965498 17850:0.0068965498 17894:0.0068965498 18255:0.0068965498 22247:0.0068965498 22340:0.0068965498 22354:0.0206897 22643:0.0068965498 22718:0.0068965498 24085:0.0068965498 24234:0.0068965498 25989:0.0068965498 26068:0.0068965498 26283:0.0068965498 27906:0.0068965498 28463:0.0068965498 28894:0.0068965498 29659:0.0068965498 30780:0.0068965498 31278:0.0068965498 31796:0.0068965498 32190:0.0068965498 #15965501
144.04157796990725159957946743816 1345:0.0028901701 1503:0.00578035 1545:0.00578035 1598:0.0028901701 1604:0.0028901701 1657:0.00578035 1713:0.0028901701 2194:0.0028901701 2195:0.0028901701 2346:0.00578035 2349:0.0028901701 2742:0.0028901701 3058:0.0028901701 3092:0.0028901701 3210:0.00578035 3625:0.0028901701 4200:0.0028901701 4208:0.0028901701 4395:0.0144509 5014:0.0028901701 5363:0.0028901701 5364:0.00578035 5365:0.00578035 5366:0.00867052 5368:0.00578035 5607:0.0028901701 5632:0.0028901701 5652:0.00578035 5933:0.0028901701 6201:0.0028901701 6783:0.0028901701 7028:0.0028901701 7235:0.00578035 7326:0.0028901701 7453:0.0028901701 7959:0.0028901701 8186:0.0028901701 8740:0.0028901701 8924:0.0028901701 9299:0.0028901701 9305:0.0028901701 9901:0.0028901701 9912:0.017340999 10310:0.0028901701 10401:0.0028901701 10851:0.0028901701 10896:0.0028901701 11154:0.0028901701 11250:0.0028901701 11903:0.0028901701 13123:0.00578035 13965:0.00867052 14631:0.00867052 14678:0.00578035 15037:0.0028901701 15277:0.00867052 15310:0.0028901701 15311:0.0028901701 15509:0.0115607 15990:0.0028901701 16508:0.0028901701 16648:0.0028901701 17057:0.0028901701 17116:0.0115607 17876:0.0028901701 17920:0.00578035 18120:0.0028901701 18237:0.0028901701 18255:0.0028901701 18636:0.00578035 19116:0.0028901701 19119:0.0028901701 20050:0.0028901701 20057:0.0028901701 20084:0.0028901701 20093:0.0028901701 20132:0.0028901701 20135:0.0028901701 20138:0.00578035 20170:0.0028901701 20244:0.037572298 20386:0.0028901701 21046:0.0028901701 21065:0.0028901701 22247:0.0028901701 22643:0.00578035 22806:0.0028901701 23192:0.00867052 23634:0.0028901701 23740:0.0028901701 23764:0.0028901701 24023:0.0028901701 24069:0.00867052 24189:0.0028901701 24196:0.0028901701 24324:0.0028901701 25600:0.00867052 25811:0.0028901701 25822:0.0028901701 26035:0.0028901701 26071:0.0028901701 26167:0.0028901701 26206:0.0028901701 26208:0.0028901701 26296:0.0028901701 26546:0.0028901701 27280:0.00578035 27384:0.0028901701 27777:0.0028901701 28940:0.0028901701 29110:0.0028901701 29112:0.0028901701 29233:0.0028901701 29431:0.0028901701 29468:0.0028901701 29641:0.0028901701 29666:0.0028901701 30213:0.0028901701 30428:0.0028901701 30432:0.0028901701 31894:0.00578035 32001:0.0028901701 32071:0.0028901701 32365:0.0028901701 32927:0.0028901701 #9559909
144.04157796990725159957946743816 1471:0.0116279 1472:0.0348837 1586:0.0038759699 1678:0.0155039 2127:0.023255801 2128:0.0038759699 2258:0.0038759699 2346:0.0038759699 3074:0.0038759699 3852:0.0038759699 4207:0.0038759699 4228:0.0077519398 5032:0.0077519398 5298:0.0038759699 5748:0.0038759699 6801:0.0038759699 7216:0.0038759699 7228:0.0038759699 7347:0.0038759699 8145:0.0038759699 8558:0.0077519398 8648:0.0038759699 9901:0.0038759699 10522:0.0038759699 10524:0.0155039 10867:0.0038759699 10888:0.0038759699 11151:0.0077519398 12903:0.0038759699 13068:0.0038759699 14003:0.0038759699 14586:0.0077519398 15411:0.0038759699 15507:0.0038759699 15947:0.0038759699 16872:0.0038759699 16985:0.0193798 16986:0.0038759699 17105:0.0193798 18110:0.0038759699 18254:0.0038759699 18255:0.0038759699 18472:0.0038759699 18608:0.0038759699 18908:0.0038759699 19176:0.0077519398 19463:0.0038759699 20107:0.0038759699 20110:0.0038759699 20183:0.0038759699 20187:0.0155039 20362:0.0193798 20363:0.0077519398 20964:0.0077519398 21099:0.0038759699 21100:0.0038759699 23281:0.0193798 24023:0.0038759699 24069:0.0038759699 24891:0.0038759699 25123:0.0038759699 25433:0.0038759699 25600:0.0116279 25632:0.0077519398 25733:0.0077519398 26149:0.0038759699 26865:0.0077519398 26928:0.0038759699 27906:0.0038759699 28009:0.0038759699 28749:0.0038759699 29085:0.0038759699 29112:0.0038759699 29231:0.0155039 29764:0.0038759699 30724:0.0038759699 30725:0.0038759699 31070:0.0038759699 31071:0.0038759699 31371:0.0038759699 32159:0.0077519398 32200:0.0038759699 #7864147
144.04157796990725159957946743816 1205:0.0066666701 2484:0.0133333 2514:0.0066666701 2742:0.0066666701 2755:0.0066666701 3067:0.0066666701 4896:0.0066666701 5800:0.0066666701 6421:0.0066666701 6582:0.0066666701 6680:0.0066666701 6693:0.0066666701 7219:0.0066666701 7515:0.0066666701 7531:0.0066666701 7537:0.0066666701 7539:0.0066666701 7541:0.0066666701 7652:0.0066666701 8223:0.0066666701 8356:0.0066666701 8394:0.0066666701 8559:0.0066666701 8730:0.0066666701 9191:0.0066666701 10896:0.0066666701 11036:0.0066666701 11099:0.0066666701 11218:0.02 11219:0.0066666701 11731:0.0066666701 12051:0.0066666701 13116:0.0066666701 14408:0.0066666701 14963:0.0066666701 15045:0.0066666701 15300:0.0066666701 15640:0.0066666701 15741:0.0066666701 16192:0.0066666701 17781:0.0066666701 18558:0.0066666701 18564:0.0066666701 18756:0.0066666701 19086:0.0066666701 19155:0.0066666701 19573:0.0066666701 19593:0.0066666701 20178:0.0066666701 23617:0.0066666701 24770:0.0066666701 25100:0.0066666701 25672:0.0066666701 25782:0.0066666701 26009:0.0066666701 26131:0.0066666701 26207:0.0066666701 26360:0.0066666701 26590:0.0066666701 27683:0.0066666701 27776:0.0133333 28004:0.0066666701 28307:0.0066666701 28401:0.0066666701 29093:0.02 29284:0.0066666701 29422:0.0066666701 29451:0.0066666701 31921:0.0066666701 32020:0.0066666701 32311:0.0066666701 32820:0.0066666701 #8027997
2.7742013638776974460142810130492 168:0.0051546399 1041:0.0051546399 2393:0.0051546399 2484:0.0154639 2488:0.0051546399 2510:0.0103093 2704:0.0051546399 2865:0.0051546399 4305:0.0051546399 4308:0.0051546399 4351:0.0051546399 5089:0.0051546399 5740:0.0103093 6064:0.0051546399 6693:0.0051546399 6711:0.0051546399 6875:0.0051546399 7183:0.0051546399 7531:0.0051546399 7652:0.0051546399 8561:0.0051546399 8638:0.0103093 8897:0.0051546399 10137:0.0051546399 10390:0.0051546399 10587:0.0051546399 10900:0.0051546399 11090:0.0051546399 11211:0.0051546399 12051:0.0051546399 12764:0.0051546399 12851:0.0051546399 12885:0.0051546399 13101:0.0051546399 13327:0.0051546399 13345:0.0051546399 13644:0.0051546399 13890:0.0051546399 14478:0.0051546399 14591:0.0051546399 15141:0.0051546399 15696:0.0154639 16737:0.0051546399 16743:0.0051546399 16745:0.0051546399 17204:0.0051546399 17466:0.0051546399 17850:0.0051546399 19086:0.0051546399 19155:0.0051546399 19317:0.0051546399 19457:0.0154639 19460:0.0103093 20546:0.0051546399 20552:0.0051546399 22559:0.025773199 23315:0.0051546399 23740:0.0051546399 24144:0.0051546399 25100:0.0051546399 25102:0.0051546399 25119:0.0051546399 25428:0.0051546399 25505:0.0051546399 25650:0.0051546399 25773:0.0051546399 25822:0.0051546399 26000:0.0051546399 26009:0.0051546399 26025:0.0051546399 26043:0.0051546399 26131:0.0051546399 26554:0.0051546399 27202:0.0051546399 27284:0.0051546399 27946:0.0051546399 28159:0.0154639 28160:0.0103093 28161:0.0051546399 28307:0.0051546399 28464:0.0051546399 28765:0.0051546399 29093:0.020618601 30213:0.0103093 30308:0.0051546399 30620:0.0051546399 31279:0.0051546399 32015:0.0051546399 #9826510
121.70596642891614180825854418799 2615:0.0039525698 2742:0.0039525698 2820:0.0039525698 3523:0.0039525698 4484:0.0039525698 4896:0.0039525698 5658:0.0079051396 5740:0.0039525698 5762:0.0079051396 5804:0.0079051396 5837:0.0079051396 6232:0.0079051396 6580:0.0039525698 6693:0.0118577 6804:0.0039525698 7006:0.0039525698 7159:0.0079051396 7829:0.019762799 8529:0.0039525698 8558:0.0039525698 8559:0.0039525698 8586:0.0039525698 8647:0.0079051396 9046:0.0079051396 9587:0.0039525698 10076:0.0118577 10092:0.0118577 10435:0.0039525698 11460:0.0039525698 11968:0.0039525698 13265:0.0039525698 13380:0.0079051396 13988:0.0039525698 14499:0.0039525698 15419:0.0039525698 15548:0.0039525698 15692:0.0039525698 15696:0.0079051396 15794:0.0039525698 17180:0.0039525698 17283:0.0039525698 17854:0.0039525698 18120:0.0039525698 18211:0.0039525698 19155:0.0039525698 20389:0.0039525698 21063:0.0039525698 21065:0.0039525698 21347:0.0039525698 22188:0.0039525698 22247:0.0039525698 22279:0.0039525698 22337:0.0039525698 22840:0.0039525698 23049:0.0039525698 23051:0.0039525698 23297:0.023715399 23616:0.0079051396 23634:0.0039525698 24085:0.0039525698 24470:0.0079051396 24526:0.0039525698 24613:0.0039525698 25361:0.0079051396 25506:0.0079051396 25508:0.0039525698 25729:0.0118577 25740:0.0039525698 25894:0.0039525698 25912:0.0039525698 26113:0.0079051396 26193:0.0039525698 26208:0.0039525698 26439:0.0039525698 26567:0.0039525698 27728:0.0079051396 27731:0.0039525698 27750:0.0039525698 27760:0.0039525698 27775:0.0039525698 27819:0.0039525698 27827:0.0039525698 28502:0.0039525698 28656:0.0039525698 28722:0.0039525698 29093:0.0118577 29103:0.0079051396 29309:0.0039525698 29322:0.0039525698 30428:0.0039525698 30877:0.0118577 30910:0.0118577 31404:0.0039525698 31586:0.0039525698 #9551554
-109.88690365466341347655543358997 1814:0.044444401 2747:0.0222222 6687:0.0222222 7531:0.044444401 7990:0.0222222 8472:0.0222222 8556:0.0222222 8753:0.0222222 12061:0.0222222 12768:0.0222222 15269:0.0222222 15649:0.0222222 18116:0.0222222 19086:0.0222222 21351:0.0222222 21353:0.0222222 23759:0.0222222 29090:0.0222222 29093:0.044444401 29112:0.0222222 29980:0.0222222 31902:0.0222222 #12089454
-144.04157796990725159957946743816 293:0.0042553199 567:0.012766 1064:0.0042553199 1353:0.0042553199 1503:0.012766 1678:0.0042553199 1680:0.0042553199 1684:0.0085106399 2346:0.0042553199 2539:0.021276601 2540:0.0042553199 3058:0.0042553199 3092:0.0042553199 4026:0.012766 4030:0.0042553199 5298:0.0042553199 5998:0.0042553199 6827:0.0042553199 7064:0.0042553199 7890:0.0042553199 7967:0.0042553199 8328:0.0042553199 8492:0.0042553199 8578:0.0042553199 9300:0.0042553199 9901:0.0170213 10318:0.0042553199 10319:0.0085106399 10402:0.0042553199 10414:0.0042553199 10969:0.0042553199 12197:0.0042553199 12227:0.0042553199 12280:0.0042553199 12400:0.0170213 13039:0.0085106399 13256:0.0042553199 13825:0.0042553199 13890:0.0042553199 14474:0.0042553199 15277:0.0085106399 15351:0.0042553199 15509:0.0085106399 16005:0.0042553199 16435:0.0170213 16981:0.0042553199 17114:0.0042553199 18120:0.0042553199 18375:0.0085106399 18636:0.0042553199 19343:0.0042553199 19454:0.021276601 20760:0.0042553199 20762:0.0042553199 22613:0.0085106399 23869:0.0042553199 24023:0.0042553199 24210:0.0042553199 24211:0.0042553199 25600:0.025531899 25619:0.0042553199 25632:0.0085106399 25740:0.0042553199 25818:0.0042553199 25822:0.0042553199 25998:0.021276601 26206:0.0042553199 26208:0.0042553199 26289:0.0042553199 26783:0.0170213 27280:0.012766 27880:0.0042553199 27881:0.0042553199 27946:0.0085106399 28945:0.0042553199 29112:0.0042553199 29316:0.0042553199 29404:0.0042553199 30192:0.012766 30586:0.0042553199 31017:0.0042553199 31102:0.0042553199 31814:0.0042553199 #12753076
-144.04157796990725159957946743816 2127:0.0104712 2181:0.0052355998 2208:0.0052355998 2955:0.0052355998 4023:0.0052355998 4026:0.036649201 4052:0.0052355998 4351:0.0104712 6118:0.0052355998 6122:0.0052355998 7332:0.0052355998 7853:0.0052355998 7990:0.0052355998 8145:0.0052355998 8147:0.0104712 8222:0.0104712 8389:0.0052355998 8536:0.0052355998 8621:0.0052355998 9211:0.0052355998 9300:0.0052355998 10361:0.0052355998 11732:0.0052355998 11829:0.0052355998 11853:0.0052355998 12880:0.0052355998 13017:0.026178 13752:0.0157068 13756:0.0104712 13758:0.0052355998 14774:0.0052355998 14859:0.0052355998 15278:0.0052355998 15313:0.0052355998 15411:0.0052355998 15419:0.0052355998 16005:0.0052355998 16767:0.0052355998 17108:0.0052355998 17368:0.0104712 17369:0.0104712 17506:0.0052355998 17523:0.0052355998 17651:0.026178 17906:0.0052355998 18120:0.0052355998 18237:0.0052355998 19155:0.0104712 19205:0.026178 20497:0.0052355998 21213:0.0104712 22545:0.0052355998 23101:0.0052355998 23315:0.0052355998 23555:0.0052355998 25361:0.0052355998 26294:0.0052355998 26554:0.0052355998 26959:0.0052355998 28009:0.0104712 28463:0.0052355998 29085:0.0052355998 29316:0.0052355998 29344:0.0052355998 29345:0.0104712 29644:0.0052355998 30354:0.0052355998 31421:0.0052355998 32611:0.0104712 #14650442
-49.258997838874151398158574011177 1298:0.0133333 2305:0.0133333 4760:0.0133333 4778:0.0133333 6965:0.0133333 6967:0.026666701 7531:0.0133333 7602:0.0133333 10035:0.053333301 10070:0.0133333 10617:0.0133333 12949:0.0133333 13525:0.0133333 15312:0.0133333 16820:0.0133333 18223:0.0133333 18558:0.026666701 19085:0.0133333 20269:0.0133333 22149:0.0133333 25283:0.026666701 26031:0.0133333 26136:0.026666701 26565:0.0133333 27946:0.0133333 28501:0.0133333 29093:0.026666701 29379:0.0133333 29566:0.0133333 29659:0.0133333 30020:0.0133333 30125:0.0133333 30514:0.0133333 31532:0.0133333 32033:0.0133333 32305:0.0133333 #12159934
-144.04157796990725159957946743816 476:0.00526316 1520:0.00526316 1806:0.00526316 2198:0.00526316 2702:0.00526316 2755:0.00526316 3639:0.00526316 3644:0.00526316 3786:0.00526316 4026:0.00526316 4505:0.00526316 4592:0.00526316 5013:0.00526316 7010:0.00526316 7068:0.00526316 7506:0.00526316 7990:0.00526316 8251:0.00526316 8529:0.00526316 9912:0.00526316 10377:0.00526316 10633:0.00526316 10735:0.0105263 11328:0.00526316 11975:0.00526316 12599:0.00526316 13411:0.021052601 14268:0.021052601 14780:0.00526316 15310:0.00526316 15500:0.0105263 15796:0.0105263 17402:0.00526316 17466:0.0105263 17859:0.00526316 18906:0.021052601 19296:0.00526316 20894:0.00526316 20952:0.00526316 21046:0.00526316 22247:0.00526316 23270:0.00526316 23515:0.0105263 24074:0.00526316 24194:0.00526316 24318:0.026315801 24376:0.00526316 25738:0.00526316 26071:0.00526316 26505:0.00526316 26515:0.00526316 26554:0.00526316 27437:0.00526316 27779:0.00526316 27906:0.0157895 27946:0.00526316 28037:0.00526316 29093:0.00526316 29178:0.0157895 29318:0.00526316 29641:0.0157895 30092:0.00526316 30506:0.0157895 30843:0.0157895 31071:0.00526316 31081:0.0157895 31095:0.00526316 31135:0.00526316 32277:0.00526316 32311:0.0105263 #12163595
51.908608463737792249048652593046 2198:0.0063694301 2687:0.0063694301 3645:0.0127389 4977:0.0127389 5298:0.0063694301 5299:0.0063694301 5607:0.019108299 5613:0.019108299 5617:0.0063694301 5632:0.057324801 6290:0.019108299 7019:0.0063694301 7086:0.0063694301 8083:0.0063694301 8146:0.0063694301 8407:0.0063694301 8470:0.0063694301 8737:0.0063694301 9231:0.019108299 10177:0.0063694301 10455:0.0063694301 10914:0.0063694301 10979:0.0063694301 11080:0.0063694301 11083:0.0063694301 13214:0.0063694301 13223:0.0063694301 14777:0.0063694301 15312:0.0063694301 15692:0.0063694301 16783:0.0063694301 17269:0.0063694301 17393:0.0063694301 17952:0.0063694301 18237:0.0063694301 18239:0.0063694301 18991:0.0063694301 19321:0.0063694301 19603:0.0063694301 19609:0.0063694301 19783:0.0127389 20830:0.0127389 20929:0.0127389 20930:0.0063694301 20945:0.0254777 21618:0.0127389 21902:0.0063694301 21904:0.0063694301 22269:0.0063694301 23588:0.0063694301 23941:0.0063694301 24023:0.0063694301 24083:0.0063694301 24120:0.0063694301 24264:0.0127389 24288:0.0063694301 24355:0.0063694301 24424:0.0063694301 25363:0.0063694301 25736:0.0063694301 25839:0.0063694301 26068:0.0063694301 27326:0.0063694301 28463:0.0063694301 28473:0.0063694301 28866:0.044585999 29112:0.0063694301 29322:0.0063694301 30892:0.0063694301 31709:0.0063694301 32354:0.0063694301 32365:0.0063694301 32749:0.0063694301 #12464630
38.210314982390059412864502519369 1288:0.0090909097 1347:0.0090909097 1368:0.0090909097 1545:0.0090909097 3093:0.0090909097 5102:0.0090909097 5632:0.018181801 6443:0.0090909097 6741:0.0090909097 6867:0.0090909097 8389:0.0090909097 8468:0.0090909097 9231:0.0090909097 10177:0.018181801 10401:0.0090909097 11080:0.018181801 11250:0.018181801 11281:0.0090909097 11328:0.0090909097 12586:0.018181801 15689:0.0090909097 19116:0.0090909097 19401:0.0090909097 19402:0.018181801 19579:0.0090909097 19687:0.036363602 19688:0.0090909097 20971:0.0090909097 23125:0.0090909097 23740:0.0090909097 23749:0.0090909097 24085:0.0090909097 25329:0.0090909097 26028:0.0090909097 26167:0.0090909097 26841:0.0090909097 26910:0.0090909097 27541:0.0090909097 28199:0.0090909097 28464:0.0090909097 28677:0.045454498 28678:0.0090909097 28679:0.018181801 28866:0.0090909097 28941:0.0090909097 29855:0.0090909097 30475:0.018181801 30843:0.027272699 30850:0.0090909097 31553:0.0090909097 31582:0.0090909097 32667:0.0090909097 #12397177
53.313450749532165673372219316661 1200:0.00847458 5607:0.0254237 5632:0.042372901 5968:0.016949199 6693:0.016949199 6699:0.00847458 7722:0.0254237 7731:0.00847458 8219:0.00847458 8518:0.00847458 9114:0.00847458 9150:0.00847458 10440:0.00847458 10450:0.00847458 10819:0.00847458 10979:0.00847458 11080:0.00847458 11968:0.00847458 14201:0.00847458 14202:0.042372901 14408:0.016949199 15150:0.00847458 16874:0.00847458 17116:0.00847458 17855:0.00847458 18120:0.00847458 18237:0.00847458 18239:0.00847458 18991:0.00847458 21104:0.00847458 21435:0.00847458 21624:0.00847458 22247:0.00847458 22819:0.016949199 23351:0.00847458 23628:0.00847458 24005:0.00847458 24287:0.00847458 24413:0.00847458 25363:0.00847458 25651:0.00847458 25843:0.00847458 26020:0.00847458 26199:0.00847458 27027:0.00847458 27865:0.00847458 28732:0.00847458 29277:0.00847458 29278:0.00847458 29861:0.00847458 31477:0.00847458 31487:0.00847458 32076:0.00847458 #11931757
144.04157796990725159957946743816 1358:0.0046728998 2926:0.0046728998 3092:0.0046728998 3465:0.028037401 5237:0.0046728998 5555:0.0140187 5561:0.0046728998 5607:0.023364499 5632:0.042056099 5793:0.0046728998 6699:0.0046728998 6959:0.0046728998 7069:0.0046728998 7273:0.0046728998 7361:0.0046728998 7722:0.018691599 7731:0.028037401 7743:0.0093457904 7904:0.0093457904 7924:0.0093457904 7930:0.0140187 8168:0.0046728998 8327:0.0046728998 8328:0.0046728998 8745:0.0046728998 9347:0.0046728998 9772:0.0046728998 11682:0.0093457904 12190:0.0046728998 12293:0.0046728998 12295:0.0093457904 14625:0.0046728998 14772:0.0046728998 14914:0.0093457904 15001:0.0046728998 15475:0.0046728998 16974:0.0046728998 17651:0.0046728998 18018:0.0046728998 18256:0.0046728998 19094:0.0046728998 20467:0.0046728998 20770:0.018691599 21046:0.0046728998 21605:0.0046728998 21616:0.0046728998 21843:0.0093457904 22276:0.0046728998 22334:0.0046728998 22819:0.0046728998 22982:0.0046728998 23196:0.0046728998 23320:0.0046728998 23486:0.0046728998 24085:0.0046728998 24112:0.0046728998 24264:0.0140187 24290:0.0046728998 24424:0.0046728998 25363:0.0046728998 25446:0.0046728998 25843:0.0093457904 26554:0.0046728998 27778:0.0046728998 28942:0.0046728998 28945:0.0046728998 29085:0.0046728998 29809:0.0046728998 29863:0.0046728998 30213:0.0046728998 31517:0.0046728998 31644:0.0046728998 31836:0.0046728998 32071:0.0046728998 32354:0.0046728998 #11896535
60.06007101115246626932275830768 435:0.0086206896 1355:0.0043103402 1607:0.0043103402 1831:0.0043103402 2198:0.0043103402 2712:0.0043103402 3972:0.0043103402 4026:0.0086206896 4219:0.0043103402 4351:0.0043103402 4881:0.0086206896 5374:0.0043103402 5387:0.0043103402 5632:0.038793098 5844:0.0043103402 5846:0.012931 5847:0.0043103402 6118:0.0043103402 6661:0.0043103402 7657:0.0043103402 8490:0.0043103402 8536:0.0043103402 9305:0.0043103402 10896:0.0043103402 11079:0.0043103402 11080:0.012931 11082:0.0172414 11083:0.0043103402 11553:0.0043103402 11872:0.0043103402 12190:0.0043103402 12197:0.0043103402 12238:0.0043103402 12961:0.043103401 13017:0.0043103402 13890:0.0043103402 14408:0.0043103402 14774:0.0043103402 14776:0.0043103402 14914:0.0043103402 15351:0.0086206896 16409:0.0043103402 16470:0.0043103402 16530:0.0043103402 16858:0.043103401 16859:0.0043103402 16860:0.0086206896 17105:0.0043103402 17180:0.0043103402 17348:0.012931 17639:0.0043103402 17651:0.012931 17850:0.0086206896 18165:0.0043103402 18825:0.0043103402 18912:0.0043103402 18914:0.0043103402 19076:0.0043103402 19205:0.0043103402 19391:0.012931 19927:0.0043103402 20373:0.0043103402 20421:0.0043103402 20796:0.0043103402 21453:0.0086206896 22924:0.0043103402 24376:0.0043103402 25296:0.0043103402 25341:0.0043103402 25600:0.012931 25632:0.012931 27207:0.0043103402 27280:0.0043103402 27282:0.0043103402 27579:0.0043103402 28463:0.0043103402 28464:0.012931 28581:0.0043103402 28733:0.0172414 29085:0.0043103402 29227:0.0043103402 29809:0.0043103402 29852:0.0043103402 30475:0.0043103402 31709:0.0043103402 31811:0.0043103402 32074:0.0086206896 #9169459
-108.38732898804633464351354632527 1067:0.014218 2188:0.0047393399 2282:0.0047393399 2283:0.0047393399 3495:0.0047393399 4395:0.0094786696 5025:0.0047393399 5607:0.0094786696 5632:0.0473934 6170:0.0047393399 6232:0.0047393399 6409:0.0047393399 6642:0.0047393399 6693:0.0047393399 10347:0.0094786696 10352:0.0047393399 10861:0.0047393399 11105:0.0047393399 11152:0.0189573 11968:0.0047393399 12721:0.0047393399 12753:0.028436 14250:0.0047393399 14634:0.0094786696 14774:0.0047393399 15944:0.0047393399 16827:0.0047393399 17258:0.0094786696 17397:0.0047393399 17404:0.014218 17894:0.0047393399 18020:0.0047393399 18336:0.037914701 18534:0.0047393399 18784:0.0047393399 18825:0.028436 18827:0.0047393399 19086:0.0047393399 19573:0.014218 21046:0.0047393399 21095:0.0047393399 21097:0.0047393399 21098:0.0047393399 22269:0.0047393399 22618:0.0094786696 22619:0.0094786696 22620:0.0047393399 24264:0.0047393399 24377:0.0047393399 25677:0.0047393399 27907:0.0047393399 29103:0.0047393399 29317:0.0047393399 29419:0.0047393399 29451:0.014218 29456:0.0047393399 30433:0.0047393399 31254:0.0094786696 31266:0.0236967 31278:0.0047393399 32078:0.0047393399 32200:0.014218 32239:0.0047393399 32354:0.0094786696 32365:0.0047393399 #12454598
-103.55873377151492320535908220336 1105:0.0097087398 1301:0.0097087398 2517:0.0097087398 2687:0.0097087398 2894:0.0097087398 3463:0.0097087398 4648:0.0097087398 5165:0.0097087398 5632:0.048543699 5646:0.0097087398 6227:0.0097087398 6860:0.0097087398 8250:0.0097087398 8513:0.0097087398 8703:0.0097087398 8944:0.0097087398 9814:0.029126201 9817:0.0097087398 10615:0.0097087398 11682:0.0097087398 12507:0.029126201 12519:0.0097087398 12586:0.0097087398 12649:0.0097087398 12713:0.0097087398 14812:0.0097087398 15021:0.0097087398 15339:0.0097087398 15392:0.0097087398 15954:0.0097087398 17659:0.0097087398 17850:0.0097087398 18381:0.0194175 19612:0.0097087398 19866:0.0097087398 19999:0.0097087398 20490:0.0097087398 23669:0.0097087398 25506:0.0097087398 26025:0.0097087398 26204:0.0097087398 27278:0.0097087398 27779:0.0097087398 28319:0.0097087398 29316:0.0097087398 30888:0.0097087398 32311:0.0097087398 #12823936
-48.304510741497153958334820345044 1237:0.0140845 1368:0.0140845 1545:0.0140845 2055:0.0140845 2297:0.0140845 3653:0.0140845 5632:0.042253502 5758:0.0140845 5946:0.0140845 6124:0.0140845 8578:0.0140845 8579:0.0140845 9772:0.0140845 10931:0.0140845 11681:0.0140845 11934:0.0140845 12330:0.0140845 12336:0.0140845 12714:0.0140845 15485:0.0140845 18240:0.0140845 19618:0.028169001 20168:0.0140845 21104:0.0140845 22080:0.0140845 23887:0.0140845 25679:0.0140845 25906:0.0140845 25955:0.0140845 26236:0.0140845 27775:0.0140845 28783:0.042253502 29582:0.0140845 30675:0.0140845 32565:0.0140845 33024:0.0140845 #15979167
-45.912314533559900553427723934874 1168:0.0054347799 1874:0.0054347799 1876:0.0108696 1884:0.0054347799 1886:0.0054347799 2124:0.0054347799 3330:0.0054347799 3631:0.0054347799 3942:0.0108696 5607:0.0108696 5632:0.027173899 5652:0.0054347799 5793:0.0054347799 6911:0.0054347799 6913:0.0054347799 7193:0.0108696 7194:0.016304299 8183:0.021739099 8407:0.0054347799 8944:0.0054347799 8953:0.0054347799 9462:0.0054347799 9530:0.0108696 10587:0.0054347799 10588:0.021739099 10878:0.0054347799 11008:0.0054347799 11163:0.0054347799 12991:0.0054347799 13612:0.0054347799 13621:0.0054347799 13890:0.0054347799 14068:0.0054347799 14166:0.0054347799 15060:0.0054347799 15097:0.0108696 15150:0.0054347799 15175:0.0054347799 15221:0.0054347799 15249:0.0054347799 15413:0.0054347799 15452:0.0054347799 16488:0.016304299 16820:0.0054347799 16861:0.0054347799 17241:0.043478299 17245:0.0054347799 17402:0.0054347799 17434:0.0054347799 17444:0.0054347799 17889:0.0054347799 18361:0.0054347799 19107:0.0054347799 20770:0.0054347799 21126:0.0054347799 21290:0.0054347799 21443:0.0054347799 22250:0.0054347799 22276:0.0054347799 22533:0.0054347799 22596:0.0054347799 22806:0.0054347799 24189:0.0054347799 24288:0.0054347799 25508:0.0054347799 25672:0.0054347799 25811:0.0054347799 25965:0.0054347799 25972:0.0054347799 26024:0.0054347799 26067:0.0054347799 26071:0.0054347799 26204:0.0054347799 26474:0.0054347799 28866:0.038043499 29451:0.0054347799 29664:0.0054347799 29980:0.0054347799 30067:0.0054347799 30967:0.0108696 31015:0.0054347799 31659:0.0054347799 31699:0.0054347799 32081:0.0054347799 32365:0.0054347799 32779:0.0054347799 #11594221
-143.69983680893477639983757399023 1187:0.0052355998 1427:0.0052355998 2198:0.0052355998 2704:0.0052355998 2802:0.0052355998 3388:0.0052355998 3641:0.0052355998 4395:0.0052355998 5607:0.0157068 5632:0.0314136 5962:0.0052355998 6418:0.0052355998 7336:0.0052355998 8760:0.0052355998 8792:0.0052355998 9782:0.0052355998 10263:0.0052355998 10902:0.0052355998 11083:0.0052355998 11856:0.0104712 12437:0.0314136 12558:0.0104712 13072:0.0052355998 13416:0.0052355998 14777:0.0052355998 15351:0.0052355998 15548:0.0052355998 15957:0.0052355998 15960:0.0052355998 16648:0.0104712 16767:0.0104712 16861:0.0052355998 16933:0.0052355998 17590:0.0052355998 17861:0.0052355998 17993:0.0052355998 18558:0.0052355998 18718:0.0052355998 20132:0.0157068 20964:0.0104712 22264:0.0104712 23012:0.0052355998 23017:0.0052355998 23099:0.0052355998 23576:0.0052355998 23582:0.0104712 24023:0.0052355998 24216:0.0052355998 24424:0.0052355998 25162:0.0104712 25320:0.0052355998 25940:0.0052355998 26025:0.0052355998 26236:0.0104712 26238:0.0104712 26283:0.0052355998 26892:0.0104712 27565:0.0052355998 27779:0.0052355998 28034:0.0052355998 28317:0.0052355998 29090:0.0052355998 29485:0.0052355998 29861:0.0052355998 30273:0.0052355998 30662:0.0104712 30877:0.0052355998 30949:0.0052355998 31384:0.020942399 31579:0.0052355998 32339:0.0052355998 32345:0.0052355998 32938:0.0052355998 #11978858
44.276852090087828628384158946574 1368:0.015873 3093:0.0079365103 4026:0.0079365103 5632:0.0079365103 6777:0.0079365103 7019:0.0079365103 7064:0.0079365103 7856:0.0079365103 8327:0.0079365103 8460:0.0238095 8559:0.0079365103 8578:0.0079365103 9150:0.0079365103 9289:0.0079365103 9772:0.0079365103 10173:0.0079365103 11080:0.0079365103 11281:0.0079365103 11328:0.0396825 12712:0.0079365103 13934:0.0079365103 14668:0.0396825 15150:0.0079365103 15475:0.0079365103 15486:0.0079365103 15745:0.0079365103 16175:0.0079365103 17393:0.0079365103 18046:0.0079365103 18359:0.0238095 19579:0.0079365103 19696:0.047619 19705:0.0079365103 19706:0.015873 20830:0.0079365103 20915:0.0079365103 22280:0.0079365103 22361:0.0079365103 23320:0.0079365103 23727:0.0079365103 23901:0.0079365103 26046:0.0079365103 26050:0.0079365103 26149:0.0079365103 26224:0.0079365103 26470:0.0079365103 26554:0.0079365103 27084:0.015873 27875:0.0079365103 28049:0.0079365103 28328:0.0079365103 28329:0.0079365103 30826:0.0079365103 32143:0.0079365103 #8797820
128.39904805761858597179525531828 1347:0.0081300801 2295:0.0081300801 3095:0.0081300801 3711:0.0081300801 3866:0.032520302 4026:0.0081300801 5293:0.0081300801 5607:0.0081300801 7086:0.0081300801 8437:0.0081300801 8578:0.016260199 9150:0.0081300801 9446:0.0081300801 10262:0.0081300801 10851:0.0081300801 10861:0.0081300801 10960:0.0081300801 11281:0.0081300801 12186:0.0081300801 12199:0.0081300801 12586:0.016260199 12590:0.0081300801 14164:0.0081300801 14408:0.0081300801 14772:0.0081300801 17021:0.0081300801 17114:0.0081300801 17134:0.0081300801 17282:0.0081300801 17891:0.0081300801 18120:0.0081300801 18255:0.0081300801 19155:0.0081300801 20915:0.016260199 22668:0.0081300801 23087:0.0081300801 23315:0.0081300801 23424:0.0081300801 23633:0.0081300801 24196:0.0081300801 24224:0.0081300801 24470:0.0081300801 24520:0.0081300801 24816:0.016260199 24817:0.0081300801 25291:0.0081300801 25694:0.0081300801 26025:0.0081300801 26068:0.0081300801 26208:0.0081300801 26554:0.0081300801 27255:0.0081300801 27775:0.0081300801 27858:0.0081300801 27866:0.0081300801 29316:0.0081300801 29855:0.0081300801 29926:0.0081300801 30851:0.0081300801 30865:0.016260199 32723:0.0243902 32730:0.0081300801 #11955446
144.04157796990725159957946743816 1064:0.00296736 1182:0.00296736 1187:0.00296736 1408:0.00296736 1426:0.00296736 1884:0.00296736 1887:0.00296736 2045:0.00296736 2196:0.00296736 2198:0.00296736 2227:0.00296736 2726:0.0059347199 2745:0.00296736 3080:0.00296736 3388:0.00296736 3523:0.00296736 3542:0.00296736 3568:0.00296736 3569:0.0059347199 3942:0.00296736 4053:0.0059347199 4583:0.00296736 5256:0.00296736 5607:0.0059347199 5634:0.0089020804 5686:0.00296736 5790:0.0059347199 5792:0.00296736 5962:0.00296736 6126:0.00296736 6128:0.00296736 6689:0.00296736 6702:0.00296736 6866:0.00296736 6987:0.00296736 7653:0.00296736 7722:0.00296736 8190:0.00296736 8505:0.00296736 8575:0.00296736 8730:0.00296736 9054:0.00296736 9446:0.00296736 10260:0.00296736 10262:0.00296736 10507:0.00296736 10966:0.00296736 10967:0.00296736 11099:0.00296736 11281:0.0089020804 11306:0.00296736 12186:0.00296736 12190:0.0059347199 12197:0.00296736 12558:0.00296736 12586:0.00296736 12590:0.0059347199 12599:0.0118694 12601:0.00296736 12603:0.00296736 13069:0.00296736 13416:0.00296736 13844:0.00296736 13934:0.00296736 14169:0.00296736 14170:0.00296736 14408:0.0059347199 14777:0.00296736 15173:0.00296736 15175:0.00296736 15249:0.00296736 15493:0.00296736 15652:0.00296736 15691:0.00296736 15692:0.00296736 15696:0.0089020804 16646:0.00296736 16648:0.0089020804 16866:0.00296736 16980:0.00296736 17005:0.0059347199 17064:0.00296736 17150:0.00296736 17249:0.00296736 17277:0.00296736 17283:0.0059347199 17356:0.00296736 17972:0.0059347199 18218:0.00296736 18558:0.00296736 18561:0.00296736 18563:0.00296736 20063:0.0059347199 20830:0.0059347199 22268:0.00296736 22340:0.0118694 22596:0.00296736 23417:0.00296736 23740:0.00296736 23850:0.00296736 24086:0.0059347199 24188:0.0059347199 24224:0.00296736 24274:0.00296736 24424:0.00296736 24470:0.0118694 24478:0.00296736 24794:0.00296736 25846:0.00296736 25944:0.00296736 26000:0.00296736 26133:0.00296736 26282:0.00296736 26833:0.00296736 26916:0.00296736 27112:0.0118694 27199:0.00296736 27276:0.00296736 27280:0.00296736 27284:0.00296736 27444:0.00296736 27565:0.00296736 27610:0.00296736 28463:0.00296736 28592:0.0089020804 29019:0.0059347199 29285:0.00296736 29317:0.00296736 29331:0.00296736 29436:0.00296736 29648:0.00296736 29739:0.00296736 30446:0.00296736 31305:0.00296736 31348:0.0118694 31644:0.00296736 32034:0.00296736 32749:0.00296736 32927:0.00296736 32931:0.0237389 #9207794
110.28446011953296590490936068818 769:0.0063694301 1056:0.0063694301 3520:0.0063694301 3634:0.0063694301 3644:0.0063694301 4023:0.0063694301 4026:0.0063694301 4351:0.0063694301 4438:0.0063694301 4482:0.0063694301 4497:0.0063694301 5652:0.0063694301 6608:0.0063694301 7010:0.0063694301 7047:0.0063694301 7071:0.0063694301 7382:0.0063694301 7531:0.0063694301 8190:0.0063694301 8492:0.0063694301 8559:0.0063694301 9150:0.0509554 9327:0.0063694301 9546:0.0063694301 9577:0.0063694301 10097:0.0063694301 10255:0.0063694301 10256:0.0063694301 10277:0.0063694301 10363:0.0063694301 11238:0.0063694301 11475:0.0063694301 11734:0.0063694301 11955:0.0063694301 12175:0.0063694301 12603:0.0063694301 13101:0.0063694301 13674:0.0127389 13812:0.0127389 14408:0.0063694301 15661:0.0063694301 16358:0.0063694301 16690:0.019108299 16691:0.0127389 16692:0.0127389 17202:0.0063694301 17859:0.0063694301 18899:0.0063694301 19161:0.0063694301 20502:0.0063694301 22082:0.0063694301 22313:0.0063694301 22337:0.0063694301 22819:0.0063694301 23616:0.0063694301 23943:0.0063694301 24197:0.0063694301 24424:0.0063694301 25989:0.0063694301 26131:0.0063694301 26149:0.0063694301 27687:0.0063694301 28913:0.0063694301 29092:0.0063694301 29093:0.0063694301 29278:0.0063694301 29313:0.0063694301 29419:0.0063694301 30640:0.0063694301 31312:0.0063694301 #11493912
144.04157796990725159957946743816 2742:0.0085470099 2790:0.0085470099 3092:0.017093999 4078:0.0085470099 4581:0.0085470099 5762:0.0085470099 5837:0.0085470099 6449:0.0085470099 7069:0.0085470099 7213:0.0085470099 7608:0.0085470099 7990:0.017093999 8327:0.0085470099 8577:0.0085470099 8578:0.0085470099 8579:0.0085470099 8696:0.0085470099 8730:0.0085470099 8944:0.0085470099 9247:0.0085470099 10504:0.017093999 11073:0.0085470099 11083:0.0085470099 12186:0.0085470099 12558:0.017093999 12586:0.034187999 12590:0.0085470099 14774:0.0085470099 14778:0.0085470099 15648:0.0085470099 15692:0.0085470099 17399:0.0085470099 17406:0.0085470099 18120:0.0085470099 18228:0.0085470099 19199:0.0085470099 20063:0.0085470099 23906:0.0085470099 24470:0.0085470099 25822:0.0085470099 25839:0.0085470099 26121:0.0085470099 26159:0.0085470099 26172:0.0085470099 26204:0.0085470099 26423:0.0085470099 27565:0.0085470099 27906:0.0085470099 29045:0.017093999 29054:0.0085470099 29055:0.0085470099 29056:0.0085470099 29322:0.0085470099 29662:0.0085470099 30475:0.017093999 30795:0.0085470099 31021:0.0085470099 32071:0.0085470099 #12684538
-144.04157796990725159957946743816 2745:0.015625 2968:0.015625 4989:0.015625 5789:0.015625 7856:0.015625 9772:0.015625 10498:0.015625 11016:0.015625 11899:0.015625 14774:0.015625 15147:0.0625 17393:0.015625 20915:0.0625 24470:0.046875 25329:0.015625 25632:0.03125 25651:0.015625 26204:0.015625 27875:0.015625 28463:0.015625 28894:0.015625 29488:0.015625 29641:0.015625 31005:0.015625 31604:0.015625 32074:0.015625 #14731965
-97.172113364806421031971694901586 1598:0.0131579 1667:0.0131579 3520:0.0131579 4351:0.0131579 4575:0.0131579 4901:0.0131579 6699:0.0131579 6779:0.0131579 8146:0.0131579 9150:0.039473701 11784:0.0131579 11964:0.0131579 12537:0.0131579 15280:0.0131579 15692:0.0131579 16037:0.0131579 16844:0.0131579 16845:0.0131579 16888:0.0131579 16916:0.0131579 17204:0.0131579 17374:0.0131579 17375:0.0131579 17621:0.0131579 17622:0.0131579 18550:0.0131579 21006:0.026315801 22927:0.0131579 23022:0.0131579 24210:0.0131579 24211:0.0131579 25265:0.0131579 26136:0.0131579 27013:0.0131579 28304:0.0131579 28501:0.0131579 28724:0.0131579 29110:0.0131579 30144:0.039473701 30219:0.0131579 30373:0.0131579 31932:0.0131579 #15993945
-144.04157796990725159957946743816 1070:0.0091743097 1472:0.0091743097 1590:0.0091743097 2968:0.0091743097 3333:0.0091743097 3653:0.0091743097 3781:0.0091743097 5634:0.0091743097 6575:0.0091743097 6821:0.027522899 7652:0.0091743097 7671:0.0091743097 7844:0.0091743097 8559:0.0091743097 8578:0.0091743097 8940:0.0091743097 8944:0.0091743097 10263:0.0091743097 10310:0.0091743097 10504:0.0091743097 10696:0.018348601 10884:0.0091743097 11083:0.0091743097 11250:0.0091743097 11281:0.0091743097 11677:0.0091743097 12586:0.0091743097 12590:0.027522899 13068:0.0091743097 15089:0.0091743097 15330:0.0091743097 16026:0.0091743097 16974:0.0091743097 17615:0.018348601 18120:0.018348601 19164:0.018348601 19502:0.0091743097 19526:0.0091743097 22319:0.0091743097 23529:0.0091743097 23634:0.0091743097 23920:0.0091743097 24167:0.0091743097 24470:0.0091743097 25944:0.0091743097 26208:0.0091743097 26268:0.018348601 26302:0.0091743097 26474:0.0091743097 26554:0.0091743097 27445:0.0091743097 28463:0.0091743097 29501:0.0091743097 31728:0.0091743097 31818:0.0091743097 #14960770
-59.71018160567700761021114885807 1071:0.0111732 2198:0.0055865902 2662:0.0055865902 3092:0.0111732 3095:0.0055865902 3653:0.0111732 4989:0.0111732 5013:0.0055865902 5942:0.0167598 6170:0.0055865902 6580:0.0055865902 6582:0.0055865902 6608:0.0055865902 6693:0.0055865902 7200:0.0167598 7652:0.0055865902 8939:0.0055865902 8941:0.0055865902 8944:0.0223464 9772:0.0055865902 9912:0.0055865902 10504:0.0055865902 11324:0.0055865902 11618:0.0055865902 11898:0.0055865902 12249:0.0055865902 12558:0.0055865902 12561:0.0055865902 12570:0.0055865902 12586:0.0223464 12590:0.0335196 12599:0.0055865902 13588:0.0111732 13626:0.0167598 14555:0.0055865902 14777:0.0055865902 15150:0.0055865902 15247:0.0055865902 15330:0.0055865902 15418:0.0055865902 15420:0.0055865902 15696:0.0055865902 15997:0.0055865902 16022:0.0055865902 16965:0.0055865902 17116:0.0223464 17277:0.0111732 17303:0.0223464 17304:0.0055865902 17306:0.0055865902 17406:0.0055865902 17850:0.0055865902 20700:0.0055865902 22194:0.0055865902 22591:0.0055865902 22859:0.0111732 23582:0.0055865902 24112:0.0055865902 24237:0.0055865902 24262:0.0055865902 24520:0.0055865902 25564:0.0055865902 25842:0.0111732 25843:0.0055865902 25892:0.0055865902 26297:0.0055865902 26321:0.0055865902 27000:0.0055865902 27214:0.0055865902 27217:0.0111732 29111:0.0223464 29501:0.0111732 31074:0.0055865902 31075:0.0055865902 31644:0.0055865902 32063:0.0055865902 #11092828
-144.04157796990725159957946743816 965:0.0076335901 1105:0.0076335901 1412:0.00254453 1455:0.00254453 1896:0.00254453 2662:0.0152672 3092:0.0050890599 3520:0.00254453 3661:0.00254453 4785:0.0076335901 5215:0.0127226 5216:0.00254453 5298:0.00254453 5634:0.0050890599 6327:0.00254453 6575:0.00254453 6803:0.00254453 7014:0.00254453 7017:0.017811701 7023:0.00254453 7077:0.00254453 7155:0.0050890599 8010:0.0076335901 8133:0.0050890599 8249:0.00254453 8508:0.00254453 8554:0.00254453 8730:0.0050890599 9036:0.00254453 9150:0.017811701 9222:0.00254453 9638:0.00254453 9639:0.0152672 9640:0.00254453 9641:0.0152672 9901:0.00254453 9922:0.00254453 10405:0.0050890599 10408:0.00254453 10580:0.00254453 10592:0.0050890599 11083:0.022900799 12016:0.00254453 12127:0.00254453 12558:0.0152672 12603:0.00254453 13281:0.00254453 13367:0.00254453 13368:0.0127226 13447:0.00254453 13686:0.00254453 13687:0.00254453 13688:0.00254453 13768:0.00254453 13771:0.0127226 14408:0.0152672 15001:0.0050890599 15150:0.00254453 15300:0.0076335901 15311:0.00254453 15313:0.0076335901 15351:0.00254453 15356:0.00254453 16459:0.00254453 16981:0.00254453 17116:0.0050890599 18120:0.00254453 18605:0.0101781 18636:0.0050890599 19257:0.0127226 21397:0.0127226 21618:0.00254453 22693:0.00254453 22694:0.0076335901 23616:0.00254453 24023:0.00254453 24196:0.00254453 24219:0.00254453 24224:0.00254453 24318:0.0076335901 25866:0.00254453 26069:0.00254453 26167:0.0050890599 27063:0.00254453 27437:0.00254453 27880:0.00254453 28724:0.00254453 28732:0.0050890599 29112:0.00254453 29331:0.00254453 30683:0.00254453 30806:0.00254453 30877:0.020356201 30899:0.020356201 30901:0.0050890599 31311:0.00254453 32114:0.017811701 32117:0.0076335901 32277:0.0101781 32320:0.00254453 32683:0.00254453 #12407424
43.41961664751737970391332055442 1345:0.0049261102 1353:0.0049261102 1359:0.0049261102 1831:0.0049261102 2389:0.0049261102 2687:0.0246305 3570:0.0098522203 3676:0.0197044 3679:0.0049261102 3695:0.049261101 3698:0.0049261102 3984:0.0394089 3985:0.0246305 3986:0.0049261102 4200:0.0098522203 4203:0.0049261102 5632:0.0246305 6356:0.0049261102 6803:0.0049261102 7438:0.0049261102 7465:0.0049261102 7652:0.0049261102 7829:0.0098522203 7868:0.0049261102 8828:0.0049261102 9666:0.0098522203 10896:0.0049261102 11036:0.0049261102 11328:0.0049261102 11677:0.0049261102 11918:0.0049261102 11975:0.0049261102 12038:0.0197044 13451:0.0049261102 13661:0.0049261102 15150:0.0049261102 15247:0.0049261102 15469:0.0098522203 15471:0.0098522203 15569:0.0098522203 17005:0.0049261102 17114:0.0098522203 18364:0.0197044 18375:0.0098522203 18977:0.0246305 21202:0.0098522203 21402:0.0197044 23365:0.0049261102 24074:0.0049261102 24078:0.0049261102 24143:0.0049261102 24195:0.0049261102 24197:0.0147783 24470:0.0049261102 25846:0.0049261102 25906:0.0098522203 27778:0.0049261102 28894:0.0049261102 29074:0.0049261102 29112:0.0049261102 29318:0.0098522203 29433:0.0049261102 29901:0.029556699 30873:0.0049261102 30875:0.0049261102 30933:0.0049261102 30935:0.0147783 31017:0.0049261102 31177:0.0049261102 #12624108
58.079977385589529603748815134168 531:0.0041152299 1550:0.0041152299 2236:0.0041152299 2482:0.0041152299 2662:0.0041152299 2670:0.041152298 2672:0.0123457 2673:0.0041152299 2674:0.0041152299 2675:0.0041152299 2682:0.0041152299 3068:0.0041152299 3085:0.0041152299 3092:0.0082304496 4026:0.0082304496 4119:0.0082304496 4762:0.0123457 4933:0.0082304496 5607:0.0041152299 5632:0.024691399 5772:0.0041152299 5776:0.0123457 5792:0.0041152299 6321:0.0041152299 6699:0.0041152299 7017:0.0041152299 7438:0.0041152299 7465:0.0041152299 8217:0.0041152299 8392:0.0041152299 8505:0.0041152299 8558:0.0041152299 10218:0.0041152299 10329:0.0041152299 10636:0.0041152299 10685:0.024691399 11905:0.016460899 11918:0.0082304496 11975:0.016460899 12177:0.0041152299 13133:0.016460899 13772:0.0123457 14777:0.0041152299 15077:0.0041152299 15249:0.0041152299 15696:0.0041152299 15789:0.0041152299 16783:0.0082304496 17292:0.0041152299 17293:0.016460899 17294:0.0041152299 17356:0.0041152299 17703:0.0041152299 18120:0.0082304496 18254:0.0041152299 18256:0.0041152299 18762:0.0041152299 18941:0.0041152299 19155:0.0082304496 19446:0.016460899 20777:0.0041152299 21033:0.0041152299 21104:0.0041152299 22256:0.0041152299 22692:0.0041152299 23567:0.0041152299 24017:0.0041152299 24023:0.0041152299 24424:0.0082304496 24470:0.0041152299 24740:0.0041152299 26071:0.0041152299 26149:0.0041152299 26235:0.0041152299 26283:0.0041152299 27206:0.0082304496 27209:0.0041152299 27210:0.0041152299 27212:0.0041152299 27447:0.0041152299 28894:0.0041152299 29112:0.0041152299 29236:0.0041152299 29855:0.0041152299 30085:0.0041152299 30873:0.0041152299 30877:0.0041152299 31074:0.0041152299 31177:0.0123457 31630:0.0041152299 31646:0.0041152299 31734:0.0041152299 #9694898
143.54401038012827029888285323977 3127:0.0248756 3129:0.0049751201 3631:0.0149254 4572:0.0049751201 4909:0.0049751201 5607:0.034825899 5618:0.0049751201 5621:0.0049751201 5632:0.019900501 5652:0.0049751201 6332:0.0049751201 7033:0.0049751201 7235:0.0149254 7404:0.0049751201 7406:0.0049751201 8002:0.0049751201 8555:0.0049751201 8578:0.0049751201 8579:0.0099502504 8728:0.0049751201 8733:0.0049751201 8743:0.0049751201 8865:0.0049751201 9110:0.0049751201 9114:0.019900501 9116:0.0049751201 9446:0.0049751201 10177:0.0049751201 10262:0.0049751201 10742:0.0049751201 10900:0.0049751201 10941:0.0049751201 11083:0.0049751201 11157:0.0049751201 11250:0.0099502504 11408:0.0049751201 12437:0.0049751201 12558:0.0099502504 12570:0.0049751201 12897:0.019900501 12898:0.0049751201 14772:0.0049751201 15955:0.0149254 17398:0.0049751201 18239:0.0149254 18254:0.0049751201 18257:0.0049751201 18919:0.0099502504 18992:0.0149254 19309:0.0049751201 19536:0.0049751201 20057:0.0049751201 20070:0.0099502504 20086:0.0099502504 20088:0.0248756 20953:0.0049751201 23740:0.0049751201 24194:0.0049751201 24210:0.0049751201 24247:0.0049751201 24316:0.0049751201 24393:0.029850701 24424:0.0049751201 25909:0.0049751201 26025:0.0049751201 26199:0.0049751201 27264:0.0049751201 27265:0.0049751201 27806:0.0099502504 27819:0.0049751201 27946:0.0049751201 28866:0.0049751201 28867:0.0049751201 29659:0.0049751201 30116:0.0049751201 30843:0.0099502504 30934:0.0049751201 30944:0.0049751201 #9403694
92.139223071129606523754773661494 1276:0.0081300801 1472:0.0081300801 1485:0.0081300801 1578:0.00406504 1757:0.00406504 1999:0.00406504 2000:0.00406504 2002:0.0121951 2003:0.0081300801 2024:0.00406504 2849:0.00406504 3215:0.00406504 3217:0.00406504 3461:0.00406504 3641:0.00406504 3920:0.0121951 3928:0.00406504 3929:0.00406504 4023:0.0081300801 4026:0.0081300801 4200:0.00406504 5088:0.00406504 5607:0.00406504 5632:0.020325201 6238:0.00406504 6542:0.00406504 6608:0.00406504 7019:0.00406504 7064:0.0081300801 7531:0.00406504 9901:0.00406504 11073:0.00406504 11082:0.00406504 11187:0.00406504 11605:0.0081300801 11682:0.00406504 11975:0.00406504 12056:0.00406504 13812:0.00406504 14166:0.00406504 14408:0.00406504 14761:0.00406504 14763:0.00406504 14777:0.00406504 14781:0.00406504 14784:0.00406504 14854:0.00406504 15657:0.016260199 15660:0.0081300801 15957:0.00406504 16963:0.00406504 16972:0.00406504 17180:0.0081300801 17340:0.00406504 17466:0.0081300801 17468:0.00406504 18019:0.00406504 18256:0.00406504 19317:0.0081300801 19593:0.00406504 19599:0.00406504 19607:0.00406504 19612:0.0121951 22559:0.00406504 23908:0.00406504 24085:0.00406504 25152:0.00406504 25651:0.0081300801 25653:0.00406504 25654:0.00406504 25733:0.00406504 25818:0.0121951 25884:0.00406504 25994:0.00406504 26025:0.00406504 26026:0.00406504 26113:0.0081300801 26325:0.0081300801 27437:0.016260199 27445:0.00406504 27552:0.00406504 27946:0.00406504 28307:0.00406504 29093:0.00406504 29174:0.00406504 29244:0.00406504 29245:0.00406504 29277:0.00406504 29419:0.00406504 29526:0.00406504 30038:0.0121951 30268:0.00406504 30535:0.0081300801 31096:0.0081300801 31371:0.0081300801 31709:0.00406504 32110:0.00406504 32682:0.00406504 #9565552
49.178001545472703526229452108964 158:0.0058139502 1426:0.0058139502 1541:0.0058139502 2510:0.0058139502 2755:0.0058139502 3093:0.0058139502 3095:0.0058139502 4351:0.0116279 5453:0.0058139502 5566:0.0058139502 5607:0.023255801 5632:0.0290698 5837:0.0058139502 6323:0.0058139502 6801:0.0058139502 7465:0.0058139502 8848:0.0116279 9398:0.0058139502 9399:0.0290698 9493:0.0290698 9494:0.0116279 9507:0.058139499 9508:0.0058139502 9510:0.0058139502 9530:0.0058139502 10741:0.0058139502 11080:0.0058139502 11082:0.0116279 11250:0.0058139502 12190:0.0058139502 13123:0.0058139502 13533:0.023255801 14164:0.0058139502 14408:0.0058139502 14769:0.0058139502 14780:0.0058139502 14995:0.0116279 15278:0.0174419 16949:0.0058139502 17136:0.0058139502 18364:0.0058139502 19183:0.0058139502 19343:0.0058139502 20964:0.0058139502 23900:0.0058139502 24424:0.0058139502 24470:0.0058139502 25600:0.0058139502 25657:0.0058139502 27384:0.0058139502 27386:0.0116279 28009:0.0058139502 28297:0.0058139502 28464:0.0058139502 28732:0.0116279 29316:0.0058139502 29451:0.0116279 30415:0.0058139502 30417:0.0058139502 30446:0.0174419 30688:0.0116279 30843:0.0058139502 30872:0.0116279 30873:0.0174419 30913:0.0058139502 31812:0.0058139502 #8194524
-14.393434061923603195509713259526 2896:0.038461499 2968:0.038461499 3631:0.076923102 5088:0.076923102 5179:0.038461499 5607:0.076923102 15442:0.038461499 18535:0.038461499 18536:0.038461499 22538:0.038461499 22540:0.038461499 24030:0.038461499 24167:0.038461499 25372:0.038461499 26025:0.038461499 #11344615
-144.04157796990725159957946743816 1056:0.0070922002 1344:0.0070922002 2742:0.0070922002 3576:0.0070922002 4977:0.0141844 5235:0.0070922002 5236:0.0070922002 5239:0.0070922002 5607:0.0141844 5632:0.021276601 5634:0.0070922002 6726:0.0070922002 6827:0.0141844 7215:0.0070922002 8083:0.0141844 8514:0.0070922002 8529:0.0070922002 9912:0.0141844 10401:0.0141844 11250:0.0070922002 11281:0.0070922002 11968:0.0070922002 12835:0.0070922002 13299:0.0070922002 13300:0.0070922002 16009:0.0070922002 16871:0.0070922002 16998:0.0070922002 18218:0.0070922002 18237:0.0070922002 18858:0.0141844 19086:0.0070922002 19317:0.0070922002 20770:0.0070922002 20830:0.0070922002 21042:0.0070922002 21688:0.0141844 21690:0.0070922002 21705:0.0070922002 22149:0.0070922002 22403:0.0070922002 22559:0.0070922002 22675:0.0070922002 23740:0.0141844 23958:0.0070922002 24030:0.0070922002 24085:0.0070922002 24152:0.0070922002 24285:0.0070922002 24314:0.0070922002 24325:0.0070922002 24470:0.0070922002 24525:0.0070922002 25511:0.0070922002 25729:0.021276601 25731:0.0070922002 26026:0.0070922002 28386:0.0070922002 28459:0.0070922002 28464:0.0070922002 29045:0.0070922002 29093:0.0070922002 29412:0.0070922002 29648:0.0070922002 29855:0.0070922002 30213:0.0141844 30843:0.0141844 31266:0.0070922002 31559:0.0070922002 32354:0.0070922002 33029:0.0070922002 #14599560
-108.84121049951035331559978658333 1379:0.011976 1427:0.00598802 2687:0.00598802 4178:0.00598802 4477:0.00598802 4977:0.00598802 5607:0.011976 5630:0.00598802 5632:0.0239521 5854:0.00598802 6743:0.00598802 6785:0.0179641 6951:0.011976 6960:0.00598802 7069:0.00598802 8392:0.00598802 8469:0.00598802 8514:0.00598802 9044:0.0179641 9381:0.00598802 9450:0.00598802 10192:0.00598802 10733:0.00598802 10851:0.00598802 10900:0.00598802 11090:0.00598802 11919:0.00598802 12095:0.00598802 12227:0.00598802 12570:0.00598802 13605:0.00598802 13737:0.00598802 13738:0.00598802 13888:0.00598802 14193:0.00598802 14766:0.00598802 15172:0.00598802 15246:0.00598802 15514:0.00598802 15692:0.00598802 16528:0.00598802 16532:0.00598802 16974:0.00598802 17096:0.0179641 17100:0.0179641 19661:0.00598802 19665:0.00598802 20030:0.00598802 20770:0.0179641 21416:0.00598802 22268:0.00598802 22819:0.011976 22825:0.00598802 23178:0.00598802 24027:0.00598802 24264:0.00598802 24538:0.00598802 25428:0.00598802 25686:0.00598802 25840:0.00598802 25846:0.00598802 26159:0.00598802 26172:0.0179641 27194:0.011976 27386:0.00598802 28866:0.011976 29322:0.00598802 29659:0.00598802 31017:0.011976 #10068273
-134.20532283428110531531274318695 1348:0.00262467 1353:0.0052493401 2198:0.00262467 2236:0.00262467 2249:0.0052493401 2250:0.023622001 2400:0.00262467 2410:0.00262467 2484:0.00262467 2687:0.023622001 2691:0.0052493401 3074:0.00262467 3092:0.00262467 3523:0.00262467 4207:0.00262467 4238:0.00262467 4619:0.00262467 5296:0.00262467 5455:0.00262467 5607:0.047244102 5632:0.0262467 5748:0.00262467 5793:0.00262467 6201:0.0052493401 6643:0.00262467 6687:0.00262467 6804:0.00262467 7217:0.00262467 7326:0.00262467 7852:0.00262467 7990:0.00262467 8250:0.00262467 8251:0.00262467 8407:0.0131234 8559:0.00262467 8574:0.0052493401 8578:0.0078740204 8828:0.00262467 8862:0.00262467 8872:0.00262467 9530:0.00262467 9597:0.0052493401 9770:0.00262467 11008:0.00262467 11022:0.0052493401 11080:0.00262467 11248:0.00262467 11302:0.0052493401 11362:0.00262467 11829:0.00262467 11918:0.00262467 13890:0.00262467 13934:0.00262467 14637:0.00262467 14985:0.0052493401 14987:0.00262467 15278:0.015748 15511:0.00262467 15525:0.00262467 16030:0.00262467 17114:0.0052493401 17116:0.0078740204 17523:0.00262467 17656:0.00262467 18111:0.00262467 18115:0.00262467 18120:0.0052493401 18223:0.00262467 18564:0.00262467 18987:0.00262467 19097:0.00262467 19201:0.00262467 19226:0.00262467 19526:0.00262467 19872:0.00262467 19999:0.00262467 20770:0.00262467 21103:0.00262467 21400:0.0078740204 21559:0.0052493401 22191:0.00262467 22341:0.00262467 22354:0.0262467 22643:0.00262467 23320:0.00262467 23413:0.00262467 23582:0.00262467 23635:0.00262467 23724:0.0078740204 23916:0.00262467 24009:0.00262467 24210:0.00262467 24285:0.00262467 24290:0.0052493401 24360:0.00262467 24768:0.00262467 25329:0.00262467 25600:0.00262467 25733:0.00262467 25943:0.00262467 26069:0.00262467 26167:0.015748 26175:0.00262467 26176:0.00262467 26204:0.00262467 26208:0.00262467 26554:0.00262467 27098:0.00262467 27252:0.00262467 27592:0.00262467 27593:0.00262467 27594:0.00262467 28942:0.00262467 28945:0.0052493401 28952:0.00262467 29072:0.00262467 29223:0.00262467 29226:0.00262467 29316:0.00262467 29613:0.00262467 30428:0.00262467 30662:0.00262467 31000:0.0131234 31330:0.00262467 31771:0.00262467 31788:0.00262467 31799:0.00262467 32405:0.00262467 32606:0.00262467 32667:0.00262467 #10644489
-144.04157796990725159957946743816 4012:0.0238095 4216:0.0238095 4887:0.0238095 5607:0.0238095 8468:0.0238095 10471:0.0238095 10735:0.0238095 11549:0.0238095 11964:0.0238095 12398:0.0238095 16213:0.0238095 16542:0.0238095 17870:0.0238095 18803:0.0238095 18908:0.0238095 19301:0.0238095 22211:0.0238095 22213:0.0238095 23289:0.0238095 24424:0.0238095 26068:0.0238095 27604:0.0238095 27775:0.0238095 30944:0.0238095 31619:0.0238095 #15137935
140.41993866036651184003858361393 1249:0.0121951 1359:0.0121951 3542:0.0121951 3653:0.0121951 5237:0.0121951 5758:0.0121951 6698:0.0121951 7531:0.0121951 7722:0.0121951 9150:0.0243902 10688:0.0121951 12099:0.0121951 13111:0.0121951 14958:0.0121951 16861:0.0121951 17952:0.0121951 18237:0.0121951 18506:0.0121951 20940:0.0121951 20946:0.0121951 20952:0.0121951 22977:0.0121951 23515:0.0243902 23518:0.0243902 24023:0.0121951 24103:0.0121951 24525:0.0121951 25329:0.0121951 25884:0.0121951 26023:0.0121951 27276:0.0121951 28468:0.0121951 29090:0.0121951 29093:0.0243902 29259:0.0121951 29739:0.0121951 30027:0.0121951 30877:0.0121951 31102:0.0121951 #9440688
90.694019256130161465989658609033 1546:0.0077519398 1598:0.0077519398 1638:0.0077519398 3209:0.0077519398 4395:0.0077519398 4861:0.0310078 5162:0.0077519398 6417:0.0077519398 7017:0.0077519398 7217:0.0077519398 8363:0.0077519398 8558:0.0077519398 8944:0.0155039 8953:0.023255801 9231:0.0155039 9252:0.0077519398 9448:0.0077519398 11080:0.0077519398 11388:0.0077519398 11561:0.0077519398 12186:0.0077519398 12357:0.0077519398 12558:0.0077519398 12586:0.0077519398 14426:0.0077519398 14638:0.0077519398 14777:0.0077519398 15249:0.0077519398 15278:0.0077519398 15339:0.0077519398 15466:0.0155039 15689:0.0077519398 15696:0.0077519398 18120:0.0077519398 20093:0.0077519398 21274:0.0077519398 22325:0.0077519398 22354:0.0077519398 23502:0.0155039 23503:0.0077519398 24211:0.0077519398 24214:0.0077519398 24377:0.0077519398 24454:0.0077519398 24470:0.023255801 25329:0.0077519398 25818:0.0077519398 25994:0.023255801 26001:0.023255801 27282:0.0077519398 27594:0.0077519398 27906:0.0077519398 28037:0.0155039 28369:0.0077519398 31105:0.0077519398 31559:0.0077519398 31910:0.0077519398 32057:0.0077519398 #8612237
144.04157796990725159957946743816 869:0.0050505102 870:0.0050505102 1109:0.0050505102 3639:0.0050505102 4909:0.0050505102 5761:0.010101 6225:0.0050505102 6227:0.0050505102 6232:0.0050505102 6523:0.0050505102 6682:0.0050505102 6693:0.0050505102 6717:0.0050505102 7010:0.0050505102 7017:0.0050505102 7064:0.0050505102 8812:0.040403999 8814:0.0050505102 8815:0.0151515 9319:0.0050505102 11964:0.0050505102 11973:0.030303 12318:0.0050505102 12603:0.0050505102 13250:0.020202 14036:0.0151515 14040:0.0050505102 14166:0.0050505102 14769:0.0050505102 15150:0.010101 15394:0.0050505102 15847:0.0050505102 15957:0.0050505102 16022:0.0151515 16175:0.010101 16607:0.0151515 17277:0.0050505102 17466:0.020202 18120:0.0050505102 18239:0.0050505102 19086:0.010101 19093:0.0050505102 19612:0.0151515 22267:0.0050505102 24074:0.010101 24079:0.0050505102 24211:0.0050505102 24377:0.0050505102 25818:0.0050505102 26068:0.0050505102 26208:0.010101 26268:0.0050505102 26505:0.0353535 26520:0.0050505102 27413:0.0050505102 27437:0.0050505102 27445:0.0151515 27858:0.0050505102 27906:0.0050505102 27946:0.0050505102 28723:0.0050505102 28732:0.0050505102 28868:0.0050505102 29012:0.0050505102 29178:0.0050505102 29316:0.0050505102 30123:0.0151515 30219:0.0050505102 32300:0.0050505102 32320:0.0050505102 32354:0.0050505102 #8648648
76.567024240950033231456473004073 393:0.0043478301 1177:0.0043478301 1202:0.0043478301 2198:0.0043478301 2233:0.0086956499 2687:0.0043478301 2704:0.0043478301 3631:0.0043478301 4695:0.0043478301 4717:0.0043478301 5632:0.0130435 5634:0.0043478301 5688:0.0043478301 6693:0.0043478301 6827:0.0043478301 6904:0.0043478301 6905:0.0043478301 6906:0.0086956499 6907:0.0130435 8144:0.0043478301 8217:0.0130435 9026:0.0043478301 9691:0.0086956499 9714:0.0043478301 9719:0.0043478301 9724:0.0043478301 9729:0.0043478301 9735:0.0130435 9736:0.0043478301 9740:0.0043478301 9743:0.0043478301 10441:0.0043478301 10516:0.0086956499 11083:0.0043478301 11964:0.0043478301 13916:0.0043478301 14408:0.0043478301 14780:0.0043478301 15392:0.0043478301 15469:0.0043478301 15471:0.0043478301 15482:0.0043478301 16022:0.021739099 16471:0.0043478301 16788:0.0043478301 17114:0.0043478301 17857:0.0043478301 18218:0.0043478301 18237:0.0043478301 18254:0.0043478301 18255:0.0043478301 18617:0.0043478301 19634:0.0304348 19636:0.0043478301 19642:0.0043478301 19760:0.0043478301 19777:0.0043478301 21039:0.0043478301 21252:0.0043478301 21902:0.0043478301 22076:0.0043478301 22082:0.0043478301 22157:0.0043478301 22337:0.0043478301 23634:0.0086956499 24017:0.0043478301 24083:0.0043478301 24085:0.0043478301 24413:0.0043478301 24470:0.0304348 25942:0.0043478301 26025:0.0043478301 26208:0.0043478301 26283:0.0086956499 26554:0.0043478301 26711:0.0043478301 27766:0.0043478301 27778:0.0043478301 27880:0.0043478301 27906:0.0043478301 28943:0.0043478301 29223:0.0086956499 29659:0.0086956499 29719:0.0043478301 29862:0.0173913 30268:0.0043478301 31465:0.0043478301 31469:0.0043478301 32277:0.0043478301 32354:0.0086956499 32365:0.0043478301 #9653139
144.04157796990725159957946743816 585:0.018867901 586:0.0047169798 682:0.0141509 1368:0.0094339596 2031:0.0047169798 2755:0.0047169798 3653:0.0047169798 5237:0.0047169798 5646:0.0094339596 5650:0.0047169798 6254:0.033018898 6258:0.0094339596 6643:0.0047169798 7106:0.0047169798 7111:0.0047169798 7539:0.0094339596 7808:0.0047169798 8144:0.0047169798 8521:0.0094339596 8940:0.0047169798 9044:0.0047169798 9901:0.0047169798 10076:0.0047169798 10508:0.0047169798 10510:0.0094339596 10600:0.0047169798 11462:0.0047169798 11463:0.0047169798 12027:0.0047169798 12141:0.0094339596 13427:0.0047169798 13890:0.0047169798 13909:0.0047169798 14482:0.0141509 15141:0.0047169798 15787:0.0047169798 15918:0.0047169798 16006:0.0094339596 16100:0.0047169798 16785:0.0047169798 17180:0.0047169798 17402:0.0047169798 17489:0.0047169798 17521:0.0047169798 18807:0.0094339596 19108:0.0047169798 19593:0.0047169798 19599:0.0141509 19923:0.0047169798 20292:0.0141509 21096:0.0047169798 21100:0.0047169798 21841:0.0047169798 21842:0.0047169798 22337:0.0047169798 23616:0.0047169798 23740:0.0235849 24293:0.0047169798 24354:0.0141509 24538:0.0047169798 25729:0.0094339596 26008:0.0047169798 26111:0.0047169798 26206:0.0047169798 26208:0.0047169798 26554:0.0094339596 27778:0.0047169798 27880:0.0094339596 28004:0.0047169798 28104:0.0047169798 28459:0.0047169798 28499:0.0094339596 29093:0.0047169798 29111:0.0047169798 30084:0.0047169798 30877:0.0047169798 32683:0.0047169798 32820:0.0047169798 #9751716
-144.04157796990725159957946743816 1337:0.00390625 1421:0.00390625 1673:0.00390625 1705:0.00390625 2757:0.00390625 3090:0.00390625 3780:0.00390625 4197:0.00390625 4205:0.015625 4584:0.00390625 4953:0.00390625 5740:0.0234375 5745:0.0078125 6584:0.00390625 6741:0.00390625 6856:0.0078125 6876:0.00390625 6989:0.00390625 7038:0.00390625 7183:0.00390625 7404:0.00390625 8558:0.00390625 8578:0.00390625 8589:0.00390625 8592:0.00390625 8746:0.00390625 9208:0.00390625 9584:0.00390625 9888:0.00390625 10103:0.00390625 10125:0.00390625 10209:0.00390625 11801:0.00390625 11903:0.0117188 11905:0.0117188 11906:0.0078125 11917:0.00390625 12227:0.00390625 12576:0.00390625 12713:0.00390625 12772:0.0117188 13451:0.00390625 13690:0.00390625 14118:0.00390625 14750:0.00390625 15149:0.00390625 15589:0.00390625 15610:0.00390625 15696:0.0078125 16022:0.00390625 16504:0.00390625 17224:0.00390625 17279:0.00390625 17826:0.00390625 18120:0.0078125 18234:0.00390625 18753:0.00390625 18907:0.00390625 19075:0.00390625 19093:0.0195312 20964:0.00390625 21118:0.00390625 22268:0.00390625 22340:0.0078125 23508:0.00390625 23509:0.0117188 23906:0.00390625 24194:0.0078125 24261:0.00390625 24424:0.00390625 24470:0.0117188 24932:0.00390625 25533:0.00390625 26199:0.00390625 26294:0.00390625 27298:0.00390625 27565:0.00390625 27819:0.00390625 27907:0.0078125 28037:0.00390625 28732:0.00390625 29093:0.0195312 29284:0.00390625 30324:0.00390625 30428:0.0078125 31177:0.0078125 31384:0.00390625 31644:0.00390625 31653:0.00390625 31681:0.00390625 31709:0.00390625 32032:0.00390625 32074:0.00390625 32232:0.00390625 32339:0.00390625 32581:0.00390625 #15207475
-144.04157796990725159957946743816 1359:0.0104712 1607:0.0052355998 2876:0.013089 2880:0.0052355998 2911:0.0026177999 3368:0.0026177999 4026:0.020942399 4031:0.0026177999 4197:0.0026177999 4205:0.0052355998 5237:0.0026177999 5787:0.0026177999 5837:0.0026177999 6670:0.0026177999 6724:0.0157068 6779:0.0026177999 6965:0.0078534 7085:0.0026177999 7086:0.0026177999 8260:0.0026177999 8273:0.0026177999 8385:0.0026177999 8386:0.0026177999 8721:0.0026177999 9085:0.0026177999 9269:0.0078534 9530:0.0026177999 10076:0.0052355998 10510:0.028795799 10607:0.0026177999 10735:0.0026177999 10864:0.0026177999 11544:0.0026177999 11918:0.0052355998 11955:0.0052355998 11964:0.0026177999 11968:0.0026177999 11975:0.0026177999 13111:0.0026177999 13245:0.0157068 13246:0.0026177999 13344:0.0052355998 13715:0.0026177999 13924:0.0052355998 13993:0.018324601 14219:0.0026177999 14311:0.0026177999 14976:0.0052355998 14977:0.0026177999 15207:0.0026177999 15272:0.0026177999 15278:0.0026177999 15310:0.0052355998 15313:0.0052355998 15486:0.0026177999 15692:0.0026177999 15738:0.0026177999 16022:0.0026177999 16028:0.044502601 16029:0.0026177999 16037:0.0026177999 16114:0.0026177999 16470:0.0052355998 16588:0.0052355998 17478:0.0026177999 17489:0.0026177999 18723:0.0026177999 18861:0.0052355998 19104:0.0026177999 19108:0.0052355998 19923:0.0052355998 20351:0.0052355998 20373:0.0026177999 21024:0.0026177999 21388:0.0104712 21688:0.013089 21694:0.0052355998 22489:0.0026177999 22675:0.0026177999 22771:0.0052355998 22872:0.0026177999 24023:0.0026177999 24052:0.0052355998 24418:0.0052355998 24420:0.0026177999 24616:0.0052355998 25251:0.0026177999 25416:0.0078534 25506:0.0026177999 25516:0.0026177999 25531:0.0052355998 25733:0.0052355998 25841:0.0026177999 25847:0.0026177999 26111:0.013089 26113:0.0026177999 26149:0.0026177999 26554:0.013089 27194:0.0052355998 27778:0.0026177999 27779:0.0026177999 27880:0.0026177999 27906:0.0026177999 27946:0.0026177999 28130:0.0026177999 28463:0.0052355998 29110:0.0026177999 29111:0.0052355998 29112:0.0026177999 29316:0.0026177999 29318:0.0104712 29980:0.0026177999 30877:0.0026177999 30974:0.0026177999 32033:0.0026177999 #11330823
-144.04157796990725159957946743816 5632:0.0088495603 6179:0.0088495603 6801:0.0088495603 6945:0.0088495603 7064:0.0088495603 7990:0.0088495603 9446:0.0176991 10325:0.0088495603 10735:0.0088495603 10861:0.0088495603 11475:0.0088495603 11812:0.0265487 12186:0.0088495603 13111:0.0088495603 13269:0.0088495603 13661:0.0088495603 14408:0.0088495603 14413:0.0088495603 14507:0.0088495603 14511:0.0088495603 15747:0.0088495603 15750:0.0088495603 17914:0.0176991 18237:0.0088495603 21410:0.0088495603 22927:0.0088495603 22930:0.0088495603 23518:0.0088495603 26026:0.0088495603 26068:0.0176991 26505:0.0353982 26508:0.0088495603 26516:0.0265487 26554:0.0088495603 27775:0.0088495603 27946:0.0088495603 27991:0.0353982 28171:0.0088495603 29094:0.0088495603 29316:0.0088495603 29855:0.0088495603 31631:0.0088495603 32354:0.0088495603 #12408822
-107.41833361426847659458871930838 1353:0.0080645196 3092:0.016129 3095:0.0080645196 3096:0.0080645196 3523:0.0080645196 6177:0.0080645196 6203:0.0080645196 6613:0.016129 6804:0.0080645196 6938:0.0080645196 7031:0.0080645196 7959:0.0080645196 8578:0.0080645196 8582:0.0080645196 8702:0.0080645196 9150:0.0080645196 9462:0.0080645196 9597:0.0080645196 9901:0.0080645196 10861:0.0080645196 10881:0.0080645196 10977:0.0080645196 11061:0.0080645196 11076:0.0080645196 12186:0.0080645196 14034:0.040322602 14769:0.0080645196 15109:0.0080645196 15278:0.0080645196 15392:0.0080645196 15467:0.0080645196 15482:0.016129 17786:0.0080645196 18120:0.016129 18975:0.0080645196 18977:0.016129 20050:0.0080645196 20057:0.0080645196 20115:0.0080645196 20133:0.0080645196 20137:0.0080645196 20163:0.0080645196 20940:0.016129 21024:0.0080645196 21099:0.016129 22643:0.0080645196 23315:0.0080645196 26287:0.016129 26297:0.0080645196 26554:0.0080645196 27396:0.016129 27571:0.016129 29641:0.0080645196 29659:0.0080645196 30295:0.0080645196 30842:0.016129 31021:0.016129 32278:0.0080645196 #12600651
-57.42121564084101237313007004559 3542:0.0204082 3975:0.0204082 5716:0.0204082 5995:0.0204082 6228:0.0204082 8440:0.0204082 9076:0.0204082 9150:0.0204082 10242:0.0204082 12100:0.0204082 12586:0.0204082 13890:0.0204082 15572:0.0204082 16362:0.0204082 19453:0.0204082 21431:0.0204082 22783:0.0408163 23424:0.0204082 23942:0.0204082 26020:0.0204082 26146:0.0204082 27776:0.0204082 28468:0.0204082 29110:0.0204082 29855:0.0204082 29863:0.0204082 30843:0.0204082 31105:0.0204082 #15866949
15.452086638532831486259055964183 1283:0.0057471301 1413:0.0057471301 2094:0.0057471301 3092:0.0057471301 3237:0.0057471301 4031:0.0057471301 4368:0.0057471301 4676:0.0057471301 4731:0.0057471301 5554:0.0057471301 5560:0.0057471301 5607:0.051724099 5632:0.0114943 6439:0.0057471301 6664:0.0057471301 6713:0.0057471301 6803:0.0057471301 6916:0.0057471301 6919:0.0057471301 7063:0.0057471301 7209:0.0057471301 7226:0.0057471301 7722:0.0057471301 7731:0.0057471301 7990:0.0057471301 8083:0.045977 8252:0.0057471301 8730:0.0057471301 9054:0.0057471301 9247:0.0057471301 9861:0.0057471301 10735:0.0057471301 11080:0.0057471301 11390:0.0057471301 12190:0.0057471301 12194:0.0114943 12227:0.0057471301 13123:0.0057471301 14866:0.045977 14867:0.0114943 14868:0.0057471301 14869:0.0057471301 15310:0.0057471301 15471:0.0057471301 15486:0.0057471301 15692:0.0057471301 16785:0.0057471301 18120:0.0057471301 19161:0.0057471301 19599:0.0057471301 20078:0.0057471301 20132:0.0057471301 21618:0.0057471301 21902:0.0172414 21906:0.0172414 21966:0.0172414 21967:0.0287356 22251:0.0114943 23699:0.0057471301 23747:0.0057471301 24794:0.0057471301 25843:0.0057471301 25845:0.0114943 26025:0.0057471301 26175:0.0057471301 27327:0.0057471301 27549:0.0057471301 29423:0.0057471301 31449:0.0057471301 32365:0.0057471301 #11706030
30.62556382709730939950532047078 1373:0.0062111798 1884:0.0062111798 3127:0.0124224 3129:0.0062111798 3832:0.0062111798 3975:0.0062111798 4022:0.0062111798 4731:0.0062111798 5607:0.0372671 5612:0.0124224 5632:0.0124224 6620:0.0124224 8002:0.0248447 8554:0.0124224 8578:0.0062111798 8862:0.0062111798 9054:0.0124224 9114:0.0062111798 9116:0.0124224 9231:0.0062111798 9446:0.0062111798 10173:0.0062111798 10261:0.0062111798 11083:0.0062111798 11250:0.0062111798 11407:0.0124224 11409:0.0062111798 12197:0.0062111798 12577:0.0062111798 15463:0.0062111798 15466:0.0124224 15692:0.0062111798 16981:0.0062111798 17764:0.0062111798 18255:0.0062111798 18363:0.0062111798 20000:0.0062111798 20057:0.0062111798 20814:0.0248447 20962:0.031055899 21400:0.0124224 22643:0.0062111798 23000:0.0062111798 23624:0.0062111798 23900:0.0062111798 24167:0.0062111798 24424:0.0062111798 24454:0.0062111798 24678:0.0062111798 25306:0.0062111798 25600:0.0062111798 25818:0.0062111798 25841:0.0124224 26071:0.0062111798 26605:0.0062111798 27263:0.0062111798 27396:0.0124224 27775:0.0062111798 28344:0.0186335 28465:0.0124224 29551:0.0062111798 29659:0.0062111798 30802:0.0062111798 30843:0.0062111798 30941:0.0062111798 31226:0.0062111798 31620:0.0062111798 #8755476
126.23790111724765949929860653356 1345:0.0075757601 1352:0.0075757601 1353:0.0075757601 1597:0.0075757601 2687:0.030303 3092:0.0075757601 4078:0.0075757601 4099:0.0075757601 4695:0.0075757601 4707:0.0075757601 5607:0.0075757601 5632:0.0075757601 5880:0.0075757601 6201:0.0075757601 6523:0.0075757601 6803:0.0075757601 6951:0.0075757601 7216:0.0075757601 8327:0.0075757601 10105:0.0075757601 10861:0.0075757601 11083:0.022727299 11425:0.0075757601 12558:0.0075757601 13121:0.0075757601 13123:0.0151515 13934:0.0075757601 14986:0.0075757601 15330:0.0075757601 15359:0.0075757601 15470:0.0075757601 15486:0.0075757601 15900:0.0075757601 17258:0.0075757601 18020:0.0075757601 18289:0.022727299 18290:0.0151515 18636:0.0075757601 19526:0.0075757601 20171:0.0075757601 20895:0.022727299 20955:0.0075757601 21559:0.0151515 21618:0.0075757601 22181:0.0075757601 22294:0.0075757601 22340:0.0075757601 24017:0.0075757601 24094:0.0075757601 24253:0.0075757601 24324:0.0075757601 24326:0.0075757601 24520:0.0075757601 25600:0.0075757601 26208:0.0075757601 27866:0.0151515 27920:0.0075757601 28478:0.0075757601 29419:0.0075757601 31128:0.0378788 31129:0.0075757601 31266:0.0151515 31619:0.0075757601 32354:0.0075757601 32842:0.0075757601 #9973222
17.373028218613409734416563878767 84:0.00369004 507:0.0147601 508:0.00369004 514:0.00369004 620:0.0147601 1348:0.00369004 1353:0.00369004 1368:0.00369004 1426:0.00369004 1485:0.00369004 2198:0.00369004 2401:0.00369004 2493:0.00369004 2510:0.00369004 2527:0.00369004 3091:0.00369004 3092:0.00369004 3093:0.00369004 4023:0.00369004 4026:0.00369004 4351:0.00369004 5166:0.00369004 5428:0.00369004 5430:0.00369004 5432:0.0073800702 5444:0.00369004 5632:0.0073800702 5688:0.00369004 5974:0.00369004 6118:0.00369004 6385:0.00369004 6693:0.0073800702 7071:0.00369004 7322:0.00369004 7465:0.00369004 8171:0.00369004 8536:0.00369004 9231:0.0147601 9247:0.0073800702 9350:0.0073800702 11239:0.00369004 12242:0.00369004 12576:0.00369004 12578:0.00369004 12579:0.00369004 12835:0.00369004 12944:0.0073800702 13911:0.00369004 13924:0.00369004 14004:0.00369004 14036:0.0073800702 14038:0.00369004 14170:0.00369004 14408:0.00369004 15001:0.00369004 15026:0.00369004 15076:0.00369004 15277:0.00369004 15351:0.00369004 15689:0.00369004 15692:0.0073800702 15898:0.00369004 16346:0.00369004 16542:0.0147601 16579:0.00369004 16952:0.00369004 16953:0.00369004 16954:0.00369004 17114:0.0073800702 17290:0.0073800702 17313:0.00369004 17859:0.00369004 18120:0.00369004 18237:0.00369004 19164:0.00369004 19783:0.00369004 19973:0.00369004 21347:0.00369004 21931:0.018450201 22935:0.0073800702 23116:0.044280399 23315:0.00369004 23630:0.00369004 23740:0.00369004 23779:0.00369004 24017:0.0073800702 24194:0.00369004 24424:0.00369004 24458:0.0073800702 24470:0.00369004 25600:0.0073800702 25628:0.00369004 25818:0.00369004 26167:0.00369004 26554:0.00369004 26770:0.00369004 27552:0.00369004 27625:0.0110701 27637:0.0110701 27776:0.00369004 27875:0.00369004 28666:0.00369004 29112:0.00369004 29478:0.00369004 29855:0.00369004 31371:0.00369004 31586:0.00369004 31709:0.00369004 32074:0.00369004 32166:0.00369004 32277:0.00369004 32311:0.00369004 #8246987
116.1494754682203733864298556 1379:0.0128205 3625:0.0512821 4207:0.0512821 5055:0.0128205 5632:0.0128205 5880:0.0128205 6833:0.0128205 7487:0.0128205 7755:0.025641 11036:0.0128205 11281:0.0128205 11973:0.0128205 15044:0.0128205 15137:0.0128205 15689:0.0128205 17096:0.0128205 17100:0.025641 17108:0.0128205 18120:0.0128205 22319:0.025641 25878:0.025641 26900:0.0128205 30104:0.025641 30106:0.0512821 30974:0.025641 31122:0.0128205 32264:0.025641 #7228577
-135.52216384943972116161603480577 2127:0.00714286 2198:0.00714286 2215:0.00357143 3092:0.00714286 3225:0.00357143 3942:0.00357143 5607:0.0142857 6645:0.00357143 6803:0.00357143 7216:0.00357143 7722:0.00714286 7996:0.00357143 8637:0.00357143 8730:0.00357143 8746:0.00357143 9912:0.00357143 10837:0.00357143 11003:0.00357143 11083:0.0214286 11281:0.00357143 11915:0.00357143 12754:0.00357143 12972:0.0214286 13437:0.00357143 13890:0.00357143 13924:0.00714286 14009:0.00357143 14012:0.00357143 14854:0.00714286 15051:0.00357143 15065:0.0107143 15071:0.017857101 15072:0.0107143 15300:0.00357143 17892:0.00714286 17894:0.00357143 17950:0.00357143 18651:0.00357143 18999:0.00357143 19555:0.00714286 20830:0.00357143 21194:0.0107143 21196:0.00357143 21197:0.0107143 21639:0.00357143 21821:0.028571401 21902:0.0214286 22354:0.00714286 23624:0.00357143 23740:0.00357143 23823:0.0142857 24094:0.0107143 24253:0.00357143 24254:0.00357143 24288:0.0142857 24470:0.00357143 25416:0.00714286 25499:0.00714286 25640:0.00357143 25846:0.00357143 25847:0.00357143 26472:0.00357143 27098:0.00357143 27879:0.0107143 27881:0.00714286 28820:0.00714286 29085:0.00357143 29110:0.00357143 29493:0.00714286 29980:0.00357143 30467:0.00357143 31266:0.00357143 31278:0.025 31836:0.00357143 32058:0.00357143 #11804280
-142.42453935214794569219520781189 1472:0.015625 1492:0.00390625 1638:0.0117188 1652:0.00390625 1782:0.00390625 3073:0.00390625 3074:0.00390625 3077:0.00390625 4207:0.0117188 4255:0.00390625 4330:0.00390625 4724:0.0078125 5396:0.00390625 5607:0.015625 5942:0.00390625 6375:0.00390625 6519:0.00390625 6608:0.00390625 6804:0.00390625 7005:0.00390625 7105:0.00390625 7301:0.0078125 7479:0.00390625 7990:0.00390625 8190:0.00390625 8250:0.00390625 8485:0.00390625 8728:0.0078125 11250:0.0195312 11595:0.0078125 12063:0.0078125 12806:0.00390625 13116:0.00390625 13588:0.00390625 13747:0.0078125 13924:0.0078125 14132:0.00390625 15277:0.00390625 15278:0.00390625 15279:0.00390625 15413:0.0078125 15625:0.0117188 15711:0.0078125 16122:0.015625 17114:0.0234375 17116:0.015625 18021:0.00390625 18383:0.0195312 18407:0.00390625 18564:0.00390625 19086:0.00390625 19161:0.0078125 19163:0.0078125 20819:0.00390625 21024:0.00390625 22191:0.00390625 23281:0.00390625 23582:0.00390625 24043:0.00390625 24071:0.0078125 24424:0.0078125 25807:0.00390625 25884:0.00390625 25893:0.00390625 25895:0.00390625 26039:0.00390625 26081:0.00390625 26106:0.00390625 26121:0.0078125 26149:0.0078125 26208:0.00390625 26892:0.00390625 27603:0.0078125 27880:0.00390625 27881:0.00390625 28198:0.00390625 28298:0.0234375 28379:0.0078125 29112:0.00390625 29189:0.0078125 29613:0.00390625 30557:0.00390625 30662:0.00390625 31074:0.00390625 32078:0.0078125 32256:0.0117188 32407:0.0078125 32454:0.00390625 32657:0.0078125 32685:0.0078125 32740:0.0195312 32927:0.0078125 #12145237
-144.04157796990725159957946743816 383:0.0044052899 583:0.0044052899 1180:0.0044052899 1190:0.0044052899 1353:0.0088105705 1359:0.0044052899 1427:0.0044052899 1606:0.0044052899 2968:0.0044052899 2998:0.0044052899 3226:0.0044052899 3334:0.0132159 3653:0.0044052899 4023:0.0044052899 4026:0.0176211 4031:0.0044052899 5607:0.0044052899 5632:0.0088105705 5634:0.0044052899 5787:0.0044052899 6388:0.0044052899 6714:0.0044052899 6772:0.0088105705 6801:0.0044052899 6856:0.0132159 6857:0.0044052899 7222:0.0044052899 7660:0.0088105705 8443:0.0044052899 8730:0.0044052899 8814:0.0044052899 8816:0.0088105705 8820:0.0044052899 8872:0.0044052899 9247:0.0044052899 9932:0.022026399 9933:0.0088105705 9938:0.030836999 10304:0.0044052899 10550:0.0044052899 10651:0.0044052899 10847:0.0044052899 11043:0.0044052899 11090:0.0132159 11105:0.0044052899 11117:0.0088105705 11250:0.0044052899 13123:0.0044052899 15249:0.0044052899 15356:0.0044052899 15640:0.0088105705 15696:0.0044052899 16022:0.0044052899 17183:0.0044052899 17188:0.0044052899 17356:0.0044052899 17854:0.0044052899 18086:0.0088105705 18120:0.0044052899 18237:0.0044052899 18361:0.0044052899 19086:0.0088105705 19222:0.0044052899 21065:0.0044052899 21095:0.0044052899 23353:0.0132159 24377:0.0044052899 25600:0.0264317 25632:0.0044052899 25818:0.0044052899 25822:0.0044052899 26035:0.0044052899 27009:0.0044052899 27252:0.0132159 27775:0.0044052899 27920:0.0044052899 28008:0.0044052899 28009:0.0044052899 29085:0.0044052899 29090:0.0088105705 29103:0.0044052899 29110:0.0044052899 29111:0.0088105705 29112:0.0044052899 31311:0.0044052899 31902:0.0044052899 #14732694
-39.185617049813139090019831201062 2379:0.0306748 2702:0.0061349701 3576:0.0061349701 4207:0.0061349701 5329:0.0061349701 5632:0.0122699 5760:0.0061349701 5891:0.018404899 5894:0.0061349701 6273:0.0061349701 6803:0.0061349701 7591:0.0122699 7873:0.0061349701 7874:0.0061349701 8010:0.0122699 8015:0.0061349701 8145:0.0061349701 9530:0.0061349701 9584:0.0061349701 10740:0.0061349701 10896:0.0061349701 11029:0.0061349701 11452:0.0061349701 11917:0.0061349701 12715:0.0061349701 12991:0.0061349701 13283:0.0061349701 13284:0.0061349701 14408:0.055214699 14441:0.0061349701 15084:0.0061349701 15096:0.0061349701 15278:0.0061349701 16226:0.0061349701 17114:0.0061349701 18564:0.0061349701 18663:0.0061349701 19086:0.0122699 19180:0.0061349701 20017:0.0061349701 21024:0.0061349701 22393:0.0061349701 22492:0.0061349701 22627:0.0061349701 22643:0.0061349701 22651:0.0061349701 23147:0.049079798 23148:0.0061349701 23158:0.018404899 25506:0.0061349701 25838:0.0061349701 26204:0.0061349701 26612:0.0061349701 27881:0.0061349701 27924:0.0061349701 28100:0.0061349701 28581:0.0122699 29493:0.0061349701 30101:0.0061349701 30966:0.018404899 32365:0.0061349701 32607:0.0061349701 32846:0.0122699 #15600169
-107.37477984677462927720625884831 1127:0.0095238099 1141:0.038095199 1344:0.019047599 1424:0.0095238099 1426:0.0095238099 1657:0.0095238099 1782:0.0095238099 1787:0.0095238099 2348:0.0095238099 3281:0.0095238099 6825:0.0095238099 6827:0.0095238099 9450:0.0095238099 9901:0.0095238099 9904:0.0095238099 11044:0.0095238099 12190:0.0095238099 12191:0.0095238099 14413:0.0095238099 15486:0.0095238099 16006:0.0095238099 16974:0.0095238099 19773:0.0095238099 19961:0.0095238099 19996:0.0095238099 20147:0.019047599 20380:0.0095238099 20770:0.0095238099 21603:0.0095238099 22854:0.0095238099 23099:0.0095238099 23740:0.0095238099 24080:0.0095238099 25600:0.028571401 25733:0.0095238099 25878:0.019047599 26554:0.0095238099 26843:0.0095238099 27778:0.0095238099 29231:0.0095238099 29245:0.0095238099 31071:0.0095238099 32713:0.019047599 #15490768
144.04157796990725159957946743816 1187:0.0087719299 1353:0.0087719299 2236:0.026315801 3092:0.0087719299 3427:0.0087719299 4053:0.0087719299 4420:0.035087701 4431:0.035087701 4434:0.0087719299 4441:0.017543901 4977:0.017543901 5184:0.017543901 5632:0.017543901 6433:0.0087719299 6538:0.0087719299 6693:0.0087719299 6699:0.0087719299 8577:0.0087719299 9327:0.0087719299 9597:0.0087719299 9772:0.0087719299 10103:0.0087719299 10260:0.0087719299 11076:0.0087719299 11324:0.0087719299 11895:0.0087719299 11918:0.0087719299 12570:0.0087719299 13779:0.0087719299 14166:0.0087719299 14305:0.0087719299 14513:0.0087719299 15689:0.0087719299 16103:0.0087719299 17861:0.0087719299 18120:0.0087719299 21274:0.0087719299 21589:0.017543901 22256:0.0087719299 22337:0.0087719299 22338:0.0087719299 22819:0.0087719299 22857:0.0087719299 24027:0.0087719299 24224:0.0087719299 25207:0.0087719299 25659:0.0087719299 25930:0.0087719299 25989:0.0087719299 26020:0.0087719299 26208:0.0087719299 27775:0.0087719299 28009:0.0087719299 28319:0.0087719299 29207:0.0087719299 29590:0.0087719299 31930:0.0087719299 #9774970
91.903839124024514717348210979253 2196:0.00578035 2722:0.00578035 3786:0.00578035 4053:0.00578035 5014:0.00578035 5607:0.00578035 5632:0.0115607 6184:0.00578035 6693:0.0115607 7856:0.00578035 8217:0.00578035 8686:0.0231214 9231:0.00578035 9328:0.00578035 9488:0.00578035 9907:0.00578035 9978:0.0115607 9979:0.00578035 9980:0.00578035 10510:0.00578035 10735:0.017340999 10818:0.0115607 11036:0.00578035 11281:0.00578035 11328:0.0115607 11964:0.0115607 12558:0.0115607 12590:0.00578035 13265:0.00578035 14408:0.00578035 15077:0.00578035 15359:0.00578035 15500:0.00578035 15696:0.00578035 15747:0.00578035 15750:0.00578035 15957:0.00578035 16648:0.00578035 17249:0.00578035 17340:0.00578035 17434:0.00578035 17440:0.0115607 17518:0.0115607 17913:0.00578035 17914:0.00578035 18120:0.00578035 18239:0.00578035 18358:0.00578035 19155:0.00578035 19343:0.00578035 19391:0.00578035 20894:0.00578035 20964:0.00578035 21104:0.00578035 23197:0.017340999 23315:0.00578035 23719:0.00578035 24167:0.00578035 24194:0.00578035 24470:0.00578035 24690:0.0231214 26505:0.0115607 26508:0.00578035 26516:0.00578035 26522:0.00578035 26554:0.00578035 27549:0.00578035 27750:0.00578035 27775:0.00578035 27776:0.00578035 27890:0.0115607 27991:0.00578035 27992:0.00578035 27993:0.00578035 29316:0.00578035 29619:0.00578035 29644:0.00578035 29855:0.00578035 30927:0.00578035 31384:0.00578035 31631:0.00578035 32071:0.00578035 32354:0.00578035 32667:0.00578035 #12526743
125.77553065068654802871606079862 1148:0.0070422501 1158:0.0070422501 1191:0.0070422501 1792:0.0070422501 1793:0.0070422501 1794:0.0070422501 2482:0.035211299 2484:0.0070422501 2754:0.0070422501 3634:0.0070422501 4026:0.0140845 4614:0.0070422501 5237:0.028169001 5240:0.0070422501 5761:0.0140845 5837:0.0070422501 7436:0.0140845 7531:0.0070422501 8104:0.0070422501 8160:0.0070422501 9920:0.0070422501 10510:0.0140845 10516:0.0070422501 10873:0.0070422501 12871:0.0070422501 14499:0.0070422501 14774:0.0070422501 15001:0.0140845 15003:0.0140845 17706:0.0140845 18240:0.0070422501 19927:0.021126799 22718:0.0070422501 23205:0.0070422501 23408:0.0070422501 23991:0.0070422501 24194:0.021126799 25329:0.0070422501 25416:0.0070422501 25508:0.0070422501 25511:0.0140845 25514:0.0070422501 26111:0.0070422501 27276:0.0070422501 27278:0.0140845 27775:0.0070422501 27912:0.0070422501 29090:0.0070422501 29093:0.0070422501 29111:0.0070422501 29259:0.0070422501 29659:0.0140845 32071:0.0070422501 32667:0.0070422501 32947:0.0070422501 #9405338
